{"learner":{"attributes":{"best_iteration":"499","best_score":"0.21549228380026764"},"feature_names":["income","name_email_similarity","prev_address_months_count","current_address_months_count","customer_age","days_since_request","intended_balcon_amount","payment_type","zip_count_4w","velocity_6h","velocity_24h","velocity_4w","bank_branch_count_8w","date_of_birth_distinct_emails_4w","employment_status","credit_risk_score","email_is_free","housing_status","phone_home_valid","phone_mobile_valid","bank_months_count","has_other_cards","proposed_credit_limit","foreign_request","source","session_length_in_minutes","device_os","keep_alive_session","device_distinct_emails_8w","device_fraud_count","month"],"feature_types":["float","float","int","int","int","float","float","int","int","float","float","float","int","int","int","int","int","int","int","int","int","int","float","int","int","float","int","int","int","int","int"],"gradient_booster":{"model":{"cats":{"enc":[],"feature_segments":[],"sorted_idx":[]},"gbtree_model_param":{"num_parallel_tree":"1","num_trees":"500"},"iteration_indptr":[0,1,2,3,4,5,6,7,8,9,10,11,12,13,14,15,16,17,18,19,20,21,22,23,24,25,26,27,28,29,30,31,32,33,34,35,36,37,38,39,40,41,42,43,44,45,46,47,48,49,50,51,52,53,54,55,56,57,58,59,60,61,62,63,64,65,66,67,68,69,70,71,72,73,74,75,76,77,78,79,80,81,82,83,84,85,86,87,88,89,90,91,92,93,94,95,96,97,98,99,100,101,102,103,104,105,106,107,108,109,110,111,112,113,114,115,116,117,118,119,120,121,122,123,124,125,126,127,128,129,130,131,132,133,134,135,136,137,138,139,140,141,142,143,144,145,146,147,148,149,150,151,152,153,154,155,156,157,158,159,160,161,162,163,164,165,166,167,168,169,170,171,172,173,174,175,176,177,178,179,180,181,182,183,184,185,186,187,188,189,190,191,192,193,194,195,196,197,198,199,200,201,202,203,204,205,206,207,208,209,210,211,212,213,214,215,216,217,218,219,220,221,222,223,224,225,226,227,228,229,230,231,232,233,234,235,236,237,238,239,240,241,242,243,244,245,246,247,248,249,250,251,252,253,254,255,256,257,258,259,260,261,262,263,264,265,266,267,268,269,270,271,272,273,274,275,276,277,278,279,280,281,282,283,284,285,286,287,288,289,290,291,292,293,294,295,296,297,298,299,300,301,302,303,304,305,306,307,308,309,310,311,312,313,314,315,316,317,318,319,320,321,322,323,324,325,326,327,328,329,330,331,332,333,334,335,336,337,338,339,340,341,342,343,344,345,346,347,348,349,350,351,352,353,354,355,356,357,358,359,360,361,362,363,364,365,366,367,368,369,370,371,372,373,374,375,376,377,378,379,380,381,382,383,384,385,386,387,388,389,390,391,392,393,394,395,396,397,398,399,400,401,402,403,404,405,406,407,408,409,410,411,412,413,414,415,416,417,418,419,420,421,422,423,424,425,426,427,428,429,430,431,432,433,434,435,436,437,438,439,440,441,442,443,444,445,446,447,448,449,450,451,452,453,454,455,456,457,458,459,460,461,462,463,464,465,466,467,468,469,470,471,472,473,474,475,476,477,478,479,480,481,482,483,484,485,486,487,488,489,490,491,492,493,494,495,496,497,498,499,500],"tree_info":[0,0,0,0,0,0,0,0,0,0,0,0,0,0,0,0,0,0,0,0,0,0,0,0,0,0,0,0,0,0,0,0,0,0,0,0,0,0,0,0,0,0,0,0,0,0,0,0,0,0,0,0,0,0,0,0,0,0,0,0,0,0,0,0,0,0,0,0,0,0,0,0,0,0,0,0,0,0,0,0,0,0,0,0,0,0,0,0,0,0,0,0,0,0,0,0,0,0,0,0,0,0,0,0,0,0,0,0,0,0,0,0,0,0,0,0,0,0,0,0,0,0,0,0,0,0,0,0,0,0,0,0,0,0,0,0,0,0,0,0,0,0,0,0,0,0,0,0,0,0,0,0,0,0,0,0,0,0,0,0,0,0,0,0,0,0,0,0,0,0,0,0,0,0,0,0,0,0,0,0,0,0,0,0,0,0,0,0,0,0,0,0,0,0,0,0,0,0,0,0,0,0,0,0,0,0,0,0,0,0,0,0,0,0,0,0,0,0,0,0,0,0,0,0,0,0,0,0,0,0,0,0,0,0,0,0,0,0,0,0,0,0,0,0,0,0,0,0,0,0,0,0,0,0,0,0,0,0,0,0,0,0,0,0,0,0,0,0,0,0,0,0,0,0,0,0,0,0,0,0,0,0,0,0,0,0,0,0,0,0,0,0,0,0,0,0,0,0,0,0,0,0,0,0,0,0,0,0,0,0,0,0,0,0,0,0,0,0,0,0,0,0,0,0,0,0,0,0,0,0,0,0,0,0,0,0,0,0,0,0,0,0,0,0,0,0,0,0,0,0,0,0,0,0,0,0,0,0,0,0,0,0,0,0,0,0,0,0,0,0,0,0,0,0,0,0,0,0,0,0,0,0,0,0,0,0,0,0,0,0,0,0,0,0,0,0,0,0,0,0,0,0,0,0,0,0,0,0,0,0,0,0,0,0,0,0,0,0,0,0,0,0,0,0,0,0,0,0,0,0,0,0,0,0,0,0,0,0,0,0,0,0,0,0,0,0,0,0,0,0,0,0,0,0,0,0,0,0,0,0,0,0,0,0,0,0,0,0,0,0,0,0,0,0,0,0,0,0,0,0,0,0,0,0,0,0,0,0,0,0,0,0,0,0,0,0,0,0,0,0],"trees":[{"base_weights":[2.5485915E-3,1.1127517E0,-6.5683955E-1,1.2538201E0,1.6891769E-1,-2.3633128E-1,-1.0488749E0,1.4556358E0,9.008597E-1,5.2465075E-1,-5.938503E-1,-2.5977174E-2,-1.1242384E0,-8.3467716E-1,-1.5939289E0,1.501644E0,7.944397E-1,9.98649E-1,-2.0745258E-1,1.4681798E-1,9.2582077E-1,-3.221508E-2,-1.2631651E0,2.0865886E-1,-8.496702E-1,-1.3207985E0,-3.130791E-1,-4.0509406E-1,-1.0951731E0,-1.6092601E0,9.6531284E-1,1.3747586E0,1.6985677E0,3.2966748E-1,1.1820153E0,1.3264441E0,7.5791645E-1,-6.696388E-1,2.7106422E-1,2.1110542E-1,-1.9848101E-1,1.2241316E0,6.337004E-1,6.328251E-1,-6.9237584E-1,2.2762982E-2,-1.4281003E0,-2.5917655E-2,8.190124E-1,1.3139969E-1,-9.7322136E-1,-3.4979042E-1,-1.4049658E0,-1.0613362E-1,-1.7654027E0,-2.5144264E-1,-1.2835368E0,-9.615568E-1,-1.7703259E0,-1.6675302E0,-1.0983933E0,-1.8987952E-1,1.4087067E0,1.5481691E-1,1.1188269E-1,1.6531184E-1,1.8959644E-1,9.650661E-2,-1.8277703E-2,-1.9275862E-1,1.2265301E-1,1.1099646E-1,1.5356629E-1,4.3271568E-2,1.0666317E-1,9.361182E-3,-1.4570175E-1,-1.9774799E-1,4.4399504E-2,-2.154278E-2,5.298351E-2,-1.9034483E-1,1.2548636E-1,7.930691E-2,-5.998707E-2,7.416716E-2,-1.9553192E-1,-1.4222696E-1,-2.0131128E-2,-1.9695653E-1,9.125607E-2,-1.7745003E-1,-1.12506084E-1,3.359229E-2,-4.0263724E-2,6.2256802E-2,1.3753006E-1,7.580957E-2,-3.3176776E-2,-1.2394547E-1,-5.8788676E-2,-5.7689335E-2,9.800331E-2,-1.1465108E-1,-1.6318683E-1,5.426363E-2,-5.8318254E-2,-1.9941545E-1,7.817721E-2,-5.628381E-2,2.0007074E-2,-1.454665E-1,-5.2435935E-2,-1.0888509E-1,-1.7043574E-2,-1.7946652E-1,9.316648E-3,-1.4805125E-1,-1.7683508E-1,-1.2814547E-1,9.2594884E-2,1.6211796E-1,-1.76E-1],"categories":[],"categories_nodes":[],"categories_segments":[],"categories_sizes":[],"default_left":[0,0,0,0,0,0,0,0,0,0,0,0,0,0,0,0,0,0,0,0,0,0,0,0,0,0,0,0,0,0,0,0,0,0,0,0,0,0,0,0,0,0,0,0,0,0,0,0,0,0,0,0,0,0,0,0,0,0,0,0,0,0,0,0,0,0,0,0,0,0,0,0,0,0,0,0,0,0,0,0,0,0,0,0,0,0,0,0,0,0,0,0,0,0,0,0,0,0,0,0,0,0,0,0,0,0,0,0,0,0,0,0,0,0,0,0,0,0,0,0,0,0,0],"id":0,"left_children":[1,3,5,7,9,11,13,15,17,19,21,23,25,27,29,31,33,35,37,39,41,43,45,47,49,51,53,55,57,59,61,63,65,67,69,71,73,75,77,79,-1,81,83,85,87,89,91,93,95,97,99,101,103,105,107,109,111,113,115,117,119,-1,121,-1,-1,-1,-1,-1,-1,-1,-1,-1,-1,-1,-1,-1,-1,-1,-1,-1,-1,-1,-1,-1,-1,-1,-1,-1,-1,-1,-1,-1,-1,-1,-1,-1,-1,-1,-1,-1,-1,-1,-1,-1,-1,-1,-1,-1,-1,-1,-1,-1,-1,-1,-1,-1,-1,-1,-1,-1,-1,-1,-1],"loss_changes":[2.0299989E5,1.3757344E4,2.8679758E4,6.4017656E3,3.6463022E3,1.5677676E4,1.0509852E4,1.7383203E3,3.5447637E3,1.3887915E3,1.606441E3,1.3116089E4,2.562795E3,7.2325E3,9.981758E2,1.3333516E3,6.700696E2,2.3702578E3,5.868216E2,6.471358E2,3.863369E2,1.0211967E3,4.1374E2,7.56238E3,1.8239629E3,1.0569512E3,9.425565E2,3.2930352E3,3.6277852E3,7.4948047E2,1.9544319E2,1.4413672E3,1.844414E2,5.519406E2,2.8322412E2,5.743047E2,1.739207E3,8.113279E2,5.0767816E2,6.2324426E2,0E0,2.1355566E2,4.423861E2,3.2773758E2,4.1795276E2,3.962805E2,1.7914185E2,5.20121E3,1.6014307E3,4.89004E2,1.3700098E3,3.1269946E2,6.961953E2,8.505549E2,2.2960168E2,2.9203594E3,4.7094092E2,3.3824844E3,3.0177734E2,4.2433594E2,9.603115E2,0E0,9.176642E1,0E0,0E0,0E0,0E0,0E0,0E0,0E0,0E0,0E0,0E0,0E0,0E0,0E0,0E0,0E0,0E0,0E0,0E0,0E0,0E0,0E0,0E0,0E0,0E0,0E0,0E0,0E0,0E0,0E0,0E0,0E0,0E0,0E0,0E0,0E0,0E0,0E0,0E0,0E0,0E0,0E0,0E0,0E0,0E0,0E0,0E0,0E0,0E0,0E0,0E0,0E0,0E0,0E0,0E0,0E0,0E0,0E0,0E0,0E0,0E0],"parents":[2147483647,0,0,1,1,2,2,3,3,4,4,5,5,6,6,7,7,8,8,9,9,10,10,11,11,12,12,13,13,14,14,15,15,16,16,17,17,18,18,19,19,20,20,21,21,22,22,23,23,24,24,25,25,26,26,27,27,28,28,29,29,30,30,31,31,32,32,33,33,34,34,35,35,36,36,37,37,38,38,39,39,41,41,42,42,43,43,44,44,45,45,46,46,47,47,48,48,49,49,50,50,51,51,52,52,53,53,54,54,55,55,56,56,57,57,58,58,59,59,60,60,62,62],"right_children":[2,4,6,8,10,12,14,16,18,20,22,24,26,28,30,32,34,36,38,40,42,44,46,48,50,52,54,56,58,60,62,64,66,68,70,72,74,76,78,80,-1,82,84,86,88,90,92,94,96,98,100,102,104,106,108,110,112,114,116,118,120,-1,122,-1,-1,-1,-1,-1,-1,-1,-1,-1,-1,-1,-1,-1,-1,-1,-1,-1,-1,-1,-1,-1,-1,-1,-1,-1,-1,-1,-1,-1,-1,-1,-1,-1,-1,-1,-1,-1,-1,-1,-1,-1,-1,-1,-1,-1,-1,-1,-1,-1,-1,-1,-1,-1,-1,-1,-1,-1,-1,-1,-1],"split_conditions":[1E0,1E0,1E0,1E0,1E0,1E0,6E0,6E0,6E0,1.5E3,-7.946426E-1,6E0,1.5E3,3.06038E-1,1.9E3,2.24E2,9E-1,2.462633E-1,1.88E2,5.5E1,3E0,3.0163208E-1,3E0,9E-1,4E0,3E0,1.2E1,1E0,1E0,6.3352715E3,-8.186037E-1,3.6884928E-1,1.9E3,2.1122153E-1,1.5503038E-3,1.93E2,2.09E2,3.106579E-1,1.5315795E3,1.263E3,-1.9848101E-1,-1.4792972E0,1E0,1.4E1,4.918725E3,1.5E3,1.3684529E-2,4.3207967E-1,2.07E2,1.8817453E-1,8E-1,2E0,4.0624622E-1,4E0,6E1,8E-1,8.452027E3,2.11E2,3.12E2,3.2986867E-1,2.31E2,-1.8987952E-1,1.3E1,1.5481691E-1,1.1188269E-1,1.6531184E-1,1.8959644E-1,9.650661E-2,-1.8277703E-2,-1.9275862E-1,1.2265301E-1,1.1099646E-1,1.5356629E-1,4.3271568E-2,1.0666317E-1,9.361182E-3,-1.4570175E-1,-1.9774799E-1,4.4399504E-2,-2.154278E-2,5.298351E-2,-1.9034483E-1,1.2548636E-1,7.930691E-2,-5.998707E-2,7.416716E-2,-1.9553192E-1,-1.4222696E-1,-2.0131128E-2,-1.9695653E-1,9.125607E-2,-1.7745003E-1,-1.12506084E-1,3.359229E-2,-4.0263724E-2,6.2256802E-2,1.3753006E-1,7.580957E-2,-3.3176776E-2,-1.2394547E-1,-5.8788676E-2,-5.7689335E-2,9.800331E-2,-1.1465108E-1,-1.6318683E-1,5.426363E-2,-5.8318254E-2,-1.9941545E-1,7.817721E-2,-5.628381E-2,2.0007074E-2,-1.454665E-1,-5.2435935E-2,-1.0888509E-1,-1.7043574E-2,-1.7946652E-1,9.316648E-3,-1.4805125E-1,-1.7683508E-1,-1.2814547E-1,9.2594884E-2,1.6211796E-1,-1.76E-1],"split_indices":[17,21,27,27,27,21,2,2,2,22,6,2,22,1,22,15,0,1,15,2,12,1,13,0,13,13,2,21,21,11,6,1,22,1,5,15,15,1,9,8,0,6,14,13,9,22,5,1,15,1,0,28,1,12,4,0,9,15,15,1,15,0,3,0,0,0,0,0,0,0,0,0,0,0,0,0,0,0,0,0,0,0,0,0,0,0,0,0,0,0,0,0,0,0,0,0,0,0,0,0,0,0,0,0,0,0,0,0,0,0,0,0,0,0,0,0,0,0,0,0,0,0,0],"split_type":[0,0,0,0,0,0,0,0,0,0,0,0,0,0,0,0,0,0,0,0,0,0,0,0,0,0,0,0,0,0,0,0,0,0,0,0,0,0,0,0,0,0,0,0,0,0,0,0,0,0,0,0,0,0,0,0,0,0,0,0,0,0,0,0,0,0,0,0,0,0,0,0,0,0,0,0,0,0,0,0,0,0,0,0,0,0,0,0,0,0,0,0,0,0,0,0,0,0,0,0,0,0,0,0,0,0,0,0,0,0,0,0,0,0,0,0,0,0,0,0,0,0,0],"sum_hessian":[2.772994E5,1.0332758E5,1.7397183E5,8.9891664E4,1.3435916E4,8.3938664E4,9.0033164E4,5.7188832E4,3.2702832E4,9.163E3,4.2729165E3,6.78625E4,1.6076167E4,6.463525E4,2.5397916E4,5.3467E4,3.7218333E3,3.00515E4,2.6513333E3,4.7195835E3,4.4434165E3,2.324E3,1.9489166E3,5.2817582E4,1.5044917E4,1.2939833E4,3.1363333E3,2.4400084E4,4.0235168E4,2.5247084E4,1.5083333E2,3.2521E4,2.0946E4,1.6933333E3,2.0285E3,1.2722666E4,1.7328832E4,1.3485834E3,1.30275E3,4.5823335E3,1.3725E2,2.1966665E3,2.24675E3,1.1576666E3,1.1663334E3,2.2158333E2,1.7273334E3,3.81545E4,1.4663083E4,1.6826666E3,1.336225E4,1.0326666E3,1.1907167E4,2.7461667E3,3.9016666E2,2.076875E4,3.6313333E3,3.3590082E4,6.6450835E3,2.266E4,2.5870833E3,1.975E1,1.3108333E2,1.9382582E4,1.3138416E4,1.7033916E4,3.9120833E3,7.556666E2,9.376666E2,2.8E1,2.0005E3,6.2561665E3,6.4665E3,8.440417E3,8.888416E3,6.851666E2,6.634167E2,9.225E1,1.2105E3,1.95975E3,2.6225833E3,2.075E1,2.1759165E3,1.9900833E3,2.5666666E2,1.1116666E3,4.6E1,4.6825E2,6.980833E2,6.8E1,1.5358333E2,8.035833E2,9.2375E2,1.94615E4,1.8693E4,1.0838083E4,3.825E3,7.149166E2,9.6775E2,7.9009165E3,5.4613335E3,8.825833E2,1.5008333E2,5.5695835E3,6.3375835E3,1.1635E3,1.5826666E3,3.5825E2,3.1916666E1,1.2291583E4,8.477167E3,2.9625E3,6.688333E2,2.8934E4,4.6560835E3,6.5595E3,8.558333E1,7.9429165E3,1.4717083E4,2.3729167E3,2.1416666E2,1.2333333E2,7.75E0],"tree_param":{"num_deleted":"0","num_feature":"31","num_nodes":"123","size_leaf_vector":"1"}},{"base_weights":[-1.2296754E-3,-7.5035334E-1,3.4710005E-1,-9.945356E-1,-1.491212E-1,-1.1484115E-1,7.683214E-1,-4.377919E-1,-1.1795399E0,-4.5003942E-1,5.047645E-1,4.0144254E-2,-1.0717531E0,9.550909E-1,-1.9205569E-1,-6.2952125E-1,3.108036E-1,-1.2202283E0,1.3632319E0,-1.5811454E-1,-1.1310523E0,7.164036E-1,-5.715871E-1,5.5972284E-1,-2.50425E-1,-1.1721575E0,9.103898E-2,1.1541898E0,4.6468654E-1,-5.970673E-1,3.765179E-1,-3.0917704E-1,-1.0244685E0,7.127818E-1,-2.9120156E-1,-9.211233E-1,-1.4616783E0,1.4360822E0,-1.8147862E-1,2.750871E-1,-5.965467E-1,-1.293223E0,5.8497775E-1,8.348437E-1,-1.8248467E-1,-1.5498884E0,1.3147381E-1,3.31486E-1,1.0279477E0,1.3624303E-1,-5.6970763E-1,-8.7392044E-1,-1.441235E0,-6.374589E-1,9.68374E-1,4.2583698E-1,1.2443382E0,1.1897846E-1,9.247317E-1,-3.3989763E-1,-1.2612212E0,7.1799415E-1,-1.2112528E-1,-1.7622503E-2,-1.5536676E-1,-1.2060239E-1,-4.7002982E-2,1.1437868E-1,4.067431E-2,-9.991209E-2,6.874945E-2,-9.869687E-2,5.5855066E-2,-1.5195318E-1,-3.0937841E-2,-1.7326298E-1,1.4785673E-1,4.349642E-2,-7.845377E-2,-7.1405046E-2,1.2068647E-1,-1.3470608E-1,1.9292308E-2,9.310675E-2,-1.8849593E-1,5.940294E-2,1.2018569E-1,-3.7808123E-4,-1.9561146E-1,-1.7026365E-1,8.597904E-2,6.250607E-2,-1.11082844E-1,8.003505E-2,-2.8585705E-3,1.337309E-1,5.968069E-2,-1.6845664E-2,6.474038E-2,-7.414237E-2,1.9264078E-3,-5.3457554E-2,-1.2158175E-1,-1.4979155E-1,-4.059758E-3,1.2550883E-1,-1.2695836E-1,1.12776875E-1,-1.8662767E-1,-1.17364675E-2,7.226878E-2,1.0447543E-1,1.4639235E-1,-3.3834085E-2,6.3102745E-2,1.0222888E-1,-9.014146E-3,-5.7882477E-2,5.3627666E-2,-1.4522265E-1,4.3158986E-2,3.3793807E-2,1.21320225E-1,-1.9090113E-1,3.4897504E-4],"categories":[],"categories_nodes":[],"categories_segments":[],"categories_sizes":[],"default_left":[0,0,0,0,0,0,0,0,0,0,0,0,0,0,0,0,0,0,0,0,0,0,0,0,0,0,0,0,0,0,0,0,0,0,0,0,0,0,0,0,0,0,0,0,0,0,0,0,0,0,0,0,0,0,0,0,0,0,0,0,0,0,0,0,0,0,0,0,0,0,0,0,0,0,0,0,0,0,0,0,0,0,0,0,0,0,0,0,0,0,0,0,0,0,0,0,0,0,0,0,0,0,0,0,0,0,0,0,0,0,0,0,0,0,0,0,0,0,0,0,0,0,0,0,0],"id":1,"left_children":[1,3,5,7,9,11,13,15,17,19,21,23,25,27,29,31,33,35,37,39,41,43,45,47,49,51,53,55,57,59,61,63,65,67,69,71,73,75,-1,77,79,81,83,85,87,89,91,93,95,97,99,101,103,105,107,109,111,113,115,117,119,121,123,-1,-1,-1,-1,-1,-1,-1,-1,-1,-1,-1,-1,-1,-1,-1,-1,-1,-1,-1,-1,-1,-1,-1,-1,-1,-1,-1,-1,-1,-1,-1,-1,-1,-1,-1,-1,-1,-1,-1,-1,-1,-1,-1,-1,-1,-1,-1,-1,-1,-1,-1,-1,-1,-1,-1,-1,-1,-1,-1,-1,-1,-1],"loss_changes":[7.198203E4,1.285382E4,3.6639188E4,6.4127773E3,4.9764663E3,1.3319503E4,1.7666406E4,2.229507E3,4.8369766E3,3.4430432E3,1.8161721E3,1.1669168E4,1.4617373E3,8.0501484E3,3.6930442E3,1.5640278E3,7.667623E2,3.3204844E3,1.730824E2,2.303032E3,1.4469873E3,7.0944556E2,9.0152856E2,2.9620674E3,6.1199326E3,9.232656E2,6.371478E2,3.849914E3,3.7867734E3,1.5990623E3,1.1338684E3,1.1294946E3,5.566631E2,2.499549E2,8.798077E2,2.00275E3,1.6960508E3,9.954321E1,0E0,1.0335856E3,1.277852E3,3.802871E2,3.857545E2,5.193545E2,2.4584468E2,2.032561E2,4.6864014E2,3.146806E3,1.2106357E3,3.4921052E3,2.7460781E3,6.336196E2,4.8058105E2,6.531465E2,2.0636716E2,1.041932E3,2.2852734E3,3.1841035E3,1.0116494E3,1.4139722E3,8.458491E2,7.441439E2,6.052494E2,0E0,0E0,0E0,0E0,0E0,0E0,0E0,0E0,0E0,0E0,0E0,0E0,0E0,0E0,0E0,0E0,0E0,0E0,0E0,0E0,0E0,0E0,0E0,0E0,0E0,0E0,0E0,0E0,0E0,0E0,0E0,0E0,0E0,0E0,0E0,0E0,0E0,0E0,0E0,0E0,0E0,0E0,0E0,0E0,0E0,0E0,0E0,0E0,0E0,0E0,0E0,0E0,0E0,0E0,0E0,0E0,0E0,0E0,0E0,0E0,0E0,0E0],"parents":[2147483647,0,0,1,1,2,2,3,3,4,4,5,5,6,6,7,7,8,8,9,9,10,10,11,11,12,12,13,13,14,14,15,15,16,16,17,17,18,18,19,19,20,20,21,21,22,22,23,23,24,24,25,25,26,26,27,27,28,28,29,29,30,30,31,31,32,32,33,33,34,34,35,35,36,36,37,37,39,39,40,40,41,41,42,42,43,43,44,44,45,45,46,46,47,47,48,48,49,49,50,50,51,51,52,52,53,53,54,54,55,55,56,56,57,57,58,58,59,59,60,60,61,61,62,62],"right_children":[2,4,6,8,10,12,14,16,18,20,22,24,26,28,30,32,34,36,38,40,42,44,46,48,50,52,54,56,58,60,62,64,66,68,70,72,74,76,-1,78,80,82,84,86,88,90,92,94,96,98,100,102,104,106,108,110,112,114,116,118,120,122,124,-1,-1,-1,-1,-1,-1,-1,-1,-1,-1,-1,-1,-1,-1,-1,-1,-1,-1,-1,-1,-1,-1,-1,-1,-1,-1,-1,-1,-1,-1,-1,-1,-1,-1,-1,-1,-1,-1,-1,-1,-1,-1,-1,-1,-1,-1,-1,-1,-1,-1,-1,-1,-1,-1,-1,-1,-1,-1,-1,-1,-1,-1],"split_conditions":[4.5E1,9E-1,1.56E2,1.8489024E-1,1.91E2,1E0,1E0,5E1,1.9E3,1E0,1E0,2.2155192E-1,1.5E3,1E0,9E-1,2.1E1,1E0,6E0,1E0,6E0,6E1,-1.2775655E-1,1.5E3,5E1,3E0,1E0,9E-1,3E1,2.31E2,-2.635609E-1,1E0,2.0727825E1,9.2E1,2E0,1.834E3,2E0,2.49E2,3E0,-1.8147862E-1,1E0,2E0,2E0,5.895855E-1,3.1E1,1.3286377E1,1.826E3,5.4486704E-1,3E0,1E0,8E-1,5E1,4.3999898E-1,2E0,4.1944683E3,7.5741425E0,6E-1,9E-1,5E1,-1.1623285E-2,2.68E2,6.366076E3,5E1,6.96E2,-1.7622503E-2,-1.5536676E-1,-1.2060239E-1,-4.7002982E-2,1.1437868E-1,4.067431E-2,-9.991209E-2,6.874945E-2,-9.869687E-2,5.5855066E-2,-1.5195318E-1,-3.0937841E-2,-1.7326298E-1,1.4785673E-1,4.349642E-2,-7.845377E-2,-7.1405046E-2,1.2068647E-1,-1.3470608E-1,1.9292308E-2,9.310675E-2,-1.8849593E-1,5.940294E-2,1.2018569E-1,-3.7808123E-4,-1.9561146E-1,-1.7026365E-1,8.597904E-2,6.250607E-2,-1.11082844E-1,8.003505E-2,-2.8585705E-3,1.337309E-1,5.968069E-2,-1.6845664E-2,6.474038E-2,-7.414237E-2,1.9264078E-3,-5.3457554E-2,-1.2158175E-1,-1.4979155E-1,-4.059758E-3,1.2550883E-1,-1.2695836E-1,1.12776875E-1,-1.8662767E-1,-1.17364675E-2,7.226878E-2,1.0447543E-1,1.4639235E-1,-3.3834085E-2,6.3102745E-2,1.0222888E-1,-9.014146E-3,-5.7882477E-2,5.3627666E-2,-1.4522265E-1,4.3158986E-2,3.3793807E-2,1.21320225E-1,-1.9090113E-1,3.4897504E-4],"split_indices":[3,0,15,1,15,21,21,4,22,18,21,1,22,18,0,2,18,2,21,2,4,6,22,4,12,18,0,4,15,6,18,6,2,12,8,28,15,3,0,21,28,28,1,3,25,12,1,12,18,0,4,1,28,11,25,0,0,4,6,15,11,4,8,0,0,0,0,0,0,0,0,0,0,0,0,0,0,0,0,0,0,0,0,0,0,0,0,0,0,0,0,0,0,0,0,0,0,0,0,0,0,0,0,0,0,0,0,0,0,0,0,0,0,0,0,0,0,0,0,0,0,0,0,0,0],"split_type":[0,0,0,0,0,0,0,0,0,0,0,0,0,0,0,0,0,0,0,0,0,0,0,0,0,0,0,0,0,0,0,0,0,0,0,0,0,0,0,0,0,0,0,0,0,0,0,0,0,0,0,0,0,0,0,0,0,0,0,0,0,0,0,0,0,0,0,0,0,0,0,0,0,0,0,0,0,0,0,0,0,0,0,0,0,0,0,0,0,0,0,0,0,0,0,0,0,0,0,0,0,0,0,0,0,0,0,0,0,0,0,0,0,0,0,0,0,0,0,0,0,0,0,0,0],"sum_hessian":[2.758523E5,8.755475E4,1.8829756E5,6.2265598E4,2.5289148E4,8.980811E4,9.848945E4,1.5531048E4,4.673455E4,1.7319281E4,7.9698687E3,7.729066E4,1.2517459E4,8.245426E4,1.6035194E4,1.2364549E4,3.1664998E3,4.599905E4,7.354989E2,1.2123686E4,5.1955947E3,6.660639E3,1.3092297E3,2.7721014E4,4.956964E4,1.1522589E4,9.948705E2,5.8643902E4,2.3810354E4,9.364624E3,6.6705703E3,6.828194E3,5.5363545E3,1.8986753E3,1.2678245E3,2.0548756E4,2.5450297E4,7.195833E2,1.5915568E1,6.098292E3,6.025394E3,4.747266E3,4.4832846E2,5.8853506E3,7.7528815E2,5.4700964E2,7.6222003E2,1.8637877E4,9.083138E3,2.241914E4,2.71505E4,5.467359E3,6.05523E3,5.4362726E2,4.512432E2,6.4596973E3,5.2184207E4,1.3595373E4,1.02149795E4,6.751868E3,2.6127559E3,3.9558652E3,2.714705E3,6.1702344E3,6.579594E2,4.1696226E3,1.3667319E3,7.871045E2,1.1115708E3,7.357305E2,5.3209393E2,1.9673678E4,8.7507654E2,2.4233215E4,1.2170813E3,8.962813E0,7.1062054E2,5.299398E3,7.9889386E2,5.6574355E3,3.6795865E2,4.5814575E3,1.6580878E2,3.9381088E2,5.451759E1,3.5553877E3,2.3299631E3,7.05285E2,7.0003174E1,5.14717E2,3.2292683E1,5.4590173E2,2.163183E2,8.095474E3,1.0542402E4,5.287094E3,3.7960432E3,1.4046555E4,8.372586E3,2.1021533E4,6.128966E3,2.7453538E3,2.7220051E3,5.819584E3,2.3564568E2,1.3582648E2,4.078008E2,4.2782373E2,2.3419447E1,2.2827688E3,4.176928E3,2.7340389E4,2.4843818E4,7.1815537E3,6.41382E3,9.319236E3,8.957431E2,5.305536E3,1.4463323E3,2.3480222E3,2.647337E2,2.2392207E3,1.7166447E3,1.7600444E2,2.5387007E3],"tree_param":{"num_deleted":"0","num_feature":"31","num_nodes":"125","size_leaf_vector":"1"}},{"base_weights":[-2.2436406E-3,-5.339395E-1,7.031256E-1,-1.0393199E0,-2.1837585E-1,-1.1211341E-2,9.073924E-1,-7.574662E-1,-1.2956082E0,8.750347E-2,-7.579169E-1,-3.253536E-1,5.5296695E-1,1.1265283E0,4.7098142E-1,-3.5731208E-1,-1.0431594E0,-1.3351697E0,-1.5871039E-1,-2.855172E-1,5.271145E-1,-8.4203756E-1,6.693286E-1,9.585499E-2,-7.532966E-1,7.0169705E-1,-7.446729E-1,5.351477E-1,1.2214507E0,1.8772234E-1,9.526953E-1,4.672887E-3,-7.399118E-1,-8.3919907E-1,-1.4310127E0,-7.829724E-1,-1.4012145E0,9.028658E-2,-1.8097398E-1,-4.8221168E-1,5.1681715E-1,7.9498947E-1,9.142901E-2,-1.0623968E0,-2.5870734E-1,1.0779912E0,1.6378534E-1,4.8246554E-1,-2.6397905E-1,-9.7744274E-1,-1.2712201E-1,9.118319E-1,2.3928701E-3,-1.3646852E0,4.1634315E-1,8.238784E-1,4.8808735E-2,1.2875971E0,5.7293004E-1,5.237084E-1,-2.7835572E-1,1.0738565E0,3.7457532E-1,2.393048E-2,-1.0213182E-1,-1.1027389E-1,-3.3734944E-2,-5.1793046E-2,-1.141687E-1,-9.590126E-2,-1.5547141E-1,-1.2601024E-1,-3.4442402E-2,-1.4167045E-1,8.881376E-2,-1.8101971E-1,2.5925532E-2,-9.2761986E-2,-1.6533313E-2,6.8460695E-2,-3.1706817E-2,1.3883077E-2,9.5685735E-2,5.1609255E-2,-3.4631986E-2,-1.093403E-1,1.2107265E-1,-7.2774924E-2,9.662584E-3,1.18575945E-1,-5.8547642E-2,-4.4473913E-2,1.10480465E-1,6.1464556E-2,-1.06257E-1,-5.0755728E-2,5.80043E-2,-2.8695336E-2,-1.105951E-1,7.360759E-2,-4.0312137E-2,1.005255E-1,-1.8754786E-2,-7.402904E-2,4.1198265E-2,-1.775925E-1,-3.6654115E-2,7.475336E-2,-1.8206955E-1,9.33777E-2,-5.632038E-2,4.7932487E-2,-3.2279417E-2,1.411968E-1,1.06686115E-1,-2.0543523E-2,9.4956934E-2,8.385266E-2,8.147198E-3,-5.000555E-2,7.2750084E-2,1.1427641E-1,3.2703266E-2,9.3301E-2,-9.8477E-3],"categories":[],"categories_nodes":[],"categories_segments":[],"categories_sizes":[],"default_left":[0,0,0,0,0,0,0,0,0,0,0,0,0,0,0,0,0,0,0,0,0,0,0,0,0,0,0,0,0,0,0,0,0,0,0,0,0,0,0,0,0,0,0,0,0,0,0,0,0,0,0,0,0,0,0,0,0,0,0,0,0,0,0,0,0,0,0,0,0,0,0,0,0,0,0,0,0,0,0,0,0,0,0,0,0,0,0,0,0,0,0,0,0,0,0,0,0,0,0,0,0,0,0,0,0,0,0,0,0,0,0,0,0,0,0,0,0,0,0,0,0,0,0,0,0],"id":2,"left_children":[1,3,5,7,9,11,13,15,17,19,21,23,25,27,29,31,33,35,37,39,41,43,45,47,49,51,53,55,57,59,61,63,65,67,69,71,73,75,-1,77,79,81,83,85,87,89,91,93,95,97,99,101,103,105,107,109,111,113,115,117,119,121,123,-1,-1,-1,-1,-1,-1,-1,-1,-1,-1,-1,-1,-1,-1,-1,-1,-1,-1,-1,-1,-1,-1,-1,-1,-1,-1,-1,-1,-1,-1,-1,-1,-1,-1,-1,-1,-1,-1,-1,-1,-1,-1,-1,-1,-1,-1,-1,-1,-1,-1,-1,-1,-1,-1,-1,-1,-1,-1,-1,-1,-1,-1],"loss_changes":[1.0267267E5,2.4894219E4,1.7169152E4,4.3331523E3,1.5859471E4,4.6375337E3,8.74975E3,3.2666328E3,1.4130508E3,1.0057191E4,4.174955E3,3.0298083E3,1.806727E3,3.4185234E3,4.173496E3,1.6490354E3,1.3175469E3,1.1061953E3,4.3526694E2,5.236214E3,3.285475E3,4.220172E3,3.9960388E2,1.1786456E3,1.1699722E3,1.2338184E3,6.9370667E2,1.1831619E3,2.2506172E3,3.0167268E3,7.9279785E2,1.4731459E3,8.4494653E2,1.0613926E3,3.336709E2,6.787267E2,9.63125E2,2.958177E2,0E0,3.760604E3,9.142848E2,1.8513633E3,1.9930082E3,1.680957E3,1.5008076E3,1.925929E2,4.9678055E2,8.346986E2,9.024222E2,5.4431885E2,5.2416943E2,6.634131E2,5.908078E2,2.568728E2,2.5009471E2,8.0656396E2,5.025645E2,1.3057891E3,1.4250068E3,1.5583652E3,1.7999307E3,4.813164E2,5.190296E2,0E0,0E0,0E0,0E0,0E0,0E0,0E0,0E0,0E0,0E0,0E0,0E0,0E0,0E0,0E0,0E0,0E0,0E0,0E0,0E0,0E0,0E0,0E0,0E0,0E0,0E0,0E0,0E0,0E0,0E0,0E0,0E0,0E0,0E0,0E0,0E0,0E0,0E0,0E0,0E0,0E0,0E0,0E0,0E0,0E0,0E0,0E0,0E0,0E0,0E0,0E0,0E0,0E0,0E0,0E0,0E0,0E0,0E0,0E0,0E0,0E0,0E0],"parents":[2147483647,0,0,1,1,2,2,3,3,4,4,5,5,6,6,7,7,8,8,9,9,10,10,11,11,12,12,13,13,14,14,15,15,16,16,17,17,18,18,19,19,20,20,21,21,22,22,23,23,24,24,25,25,26,26,27,27,28,28,29,29,30,30,31,31,32,32,33,33,34,34,35,35,36,36,37,37,39,39,40,40,41,41,42,42,43,43,44,44,45,45,46,46,47,47,48,48,49,49,50,50,51,51,52,52,53,53,54,54,55,55,56,56,57,57,58,58,59,59,60,60,61,61,62,62],"right_children":[2,4,6,8,10,12,14,16,18,20,22,24,26,28,30,32,34,36,38,40,42,44,46,48,50,52,54,56,58,60,62,64,66,68,70,72,74,76,-1,78,80,82,84,86,88,90,92,94,96,98,100,102,104,106,108,110,112,114,116,118,120,122,124,-1,-1,-1,-1,-1,-1,-1,-1,-1,-1,-1,-1,-1,-1,-1,-1,-1,-1,-1,-1,-1,-1,-1,-1,-1,-1,-1,-1,-1,-1,-1,-1,-1,-1,-1,-1,-1,-1,-1,-1,-1,-1,-1,-1,-1,-1,-1,-1,-1,-1,-1,-1,-1,-1,-1,-1,-1,-1,-1,-1,-1,-1],"split_conditions":[3E0,4.7E1,4.1E1,6E0,1E0,9E-1,1E0,3.06038E-1,2E0,8E-1,2E0,1E0,1E0,3E1,1.5E3,1E0,1E0,9.1091305E-2,-4.7857463E-1,5E1,1E0,9E-1,2.9712757E-1,3.6884928E-1,9.9E2,1E0,1.5E3,1E0,1E0,4.9186048E-1,1E0,1E0,8E-1,1E0,3.7990266E3,4.7E1,2E3,2.793144E0,-1.8097398E-1,1E0,-1.2775655E-1,1E0,3.493827E-1,1.9E3,1E0,1E0,1E3,1.08E2,1.5E3,1.223694E-1,1E0,8.497363E0,1.5E1,7.724806E0,-4.3989268E-1,8.6439776E-1,4.9186048E-1,1E0,8E-1,1E0,6E1,2.4780521E0,3E0,2.393048E-2,-1.0213182E-1,-1.1027389E-1,-3.3734944E-2,-5.1793046E-2,-1.141687E-1,-9.590126E-2,-1.5547141E-1,-1.2601024E-1,-3.4442402E-2,-1.4167045E-1,8.881376E-2,-1.8101971E-1,2.5925532E-2,-9.2761986E-2,-1.6533313E-2,6.8460695E-2,-3.1706817E-2,1.3883077E-2,9.5685735E-2,5.1609255E-2,-3.4631986E-2,-1.093403E-1,1.2107265E-1,-7.2774924E-2,9.662584E-3,1.18575945E-1,-5.8547642E-2,-4.4473913E-2,1.10480465E-1,6.1464556E-2,-1.06257E-1,-5.0755728E-2,5.80043E-2,-2.8695336E-2,-1.105951E-1,7.360759E-2,-4.0312137E-2,1.005255E-1,-1.8754786E-2,-7.402904E-2,4.1198265E-2,-1.775925E-1,-3.6654115E-2,7.475336E-2,-1.8206955E-1,9.33777E-2,-5.632038E-2,4.7932487E-2,-3.2279417E-2,1.411968E-1,1.06686115E-1,-2.0543523E-2,9.4956934E-2,8.385266E-2,8.147198E-3,-5.000555E-2,7.2750084E-2,1.1427641E-1,3.2703266E-2,9.3301E-2,-9.8477E-3],"split_indices":[26,3,3,2,18,0,18,1,28,0,28,27,21,4,22,27,18,1,6,4,27,0,1,1,22,18,22,27,21,1,21,21,0,27,11,2,22,25,0,16,6,7,1,22,16,21,22,12,22,1,12,6,3,25,6,1,1,27,0,27,4,6,12,0,0,0,0,0,0,0,0,0,0,0,0,0,0,0,0,0,0,0,0,0,0,0,0,0,0,0,0,0,0,0,0,0,0,0,0,0,0,0,0,0,0,0,0,0,0,0,0,0,0,0,0,0,0,0,0,0,0,0,0,0,0],"split_type":[0,0,0,0,0,0,0,0,0,0,0,0,0,0,0,0,0,0,0,0,0,0,0,0,0,0,0,0,0,0,0,0,0,0,0,0,0,0,0,0,0,0,0,0,0,0,0,0,0,0,0,0,0,0,0,0,0,0,0,0,0,0,0,0,0,0,0,0,0,0,0,0,0,0,0,0,0,0,0,0,0,0,0,0,0,0,0,0,0,0,0,0,0,0,0,0,0,0,0,0,0,0,0,0,0,0,0,0,0,0,0,0,0,0,0,0,0,0,0,0,0,0,0,0,0],"sum_hessian":[2.7376125E5,1.5609772E5,1.1766353E5,6.0001586E4,9.609613E4,2.6164537E4,9.149899E4,2.8577621E4,3.1423963E4,6.132826E4,3.476787E4,1.6806852E4,9.357687E3,6.0911543E4,3.0587447E4,1.1905237E4,1.6672385E4,3.0366996E4,1.0569669E3,3.317694E4,2.815132E4,3.283319E4,1.934679E3,8.470345E3,8.336507E3,8.395917E3,9.6176886E2,8.425727E3,5.2485816E4,1.9262338E4,1.1325109E4,6.1177974E3,5.78744E3,1.0928723E4,5.7436616E3,3.2455415E3,2.7121455E4,9.19221E2,1.3774588E2,2.6645297E4,6.531645E3,1.743228E4,1.0719041E4,2.3830117E4,9.003073E3,1.0691152E3,8.655637E2,4.0832175E3,4.387127E3,6.1384575E3,2.198049E3,6.4556143E3,1.9403032E3,6.268993E2,3.3486957E2,5.2863916E3,3.1393352E3,4.7626934E4,4.8588823E3,1.1193363E4,8.0689736E3,9.362009E3,1.963101E3,4.979833E3,1.1379642E3,3.0429026E3,2.7445376E3,5.3013105E3,5.6274126E3,1.1946948E3,4.548967E3,1.5533898E3,1.6921519E3,2.6939604E4,1.8185135E2,7.421209E1,8.450089E2,1.1075377E4,1.556992E4,5.437783E3,1.0938619E3,3.44992E3,1.3982359E4,5.4408657E3,5.278176E3,2.3509994E4,3.2012274E2,3.8802947E3,5.122779E3,1.00439264E3,6.4722565E1,5.2590216E2,3.3966156E2,3.7620366E3,3.2118076E2,3.4049902E3,9.8213684E2,9.638094E2,5.174648E3,5.320414E2,1.6660077E3,5.9501577E3,5.054562E2,6.8933105E2,1.2509722E3,4.4335544E2,1.8354385E2,2.9230478E2,4.256477E1,4.898669E3,3.8772266E2,1.4543706E3,1.6849646E3,3.0459215E4,1.7167719E4,1.5845109E3,3.2743713E3,6.5379917E3,4.655372E3,6.61219E3,1.4567836E3,8.570561E3,7.914484E2,8.999527E2,1.0631483E3],"tree_param":{"num_deleted":"0","num_feature":"31","num_nodes":"125","size_leaf_vector":"1"}},{"base_weights":[9.19844E-3,9.2375696E-1,-5.3255224E-1,5.5127764E-1,1.2198415E0,-8.896483E-1,1.145321E-1,7.1746176E-1,-3.491109E-1,1.3242663E0,9.828781E-1,-6.1372036E-1,-1.1162088E0,3.7748858E-1,-3.875292E-1,9.6932167E-1,3.244243E-1,-2.4946902E-2,-9.3672955E-1,1.4338462E0,1.191894E0,1.0756122E0,4.3225268E-1,-4.5445022E-1,-1.1765981E0,-1.3278912E0,-9.613515E-1,-2.3801875E-1,5.834256E-1,6.35189E-1,-5.77394E-1,1.0936266E0,6.1009854E-1,5.9546703E-1,-2.1762554E-1,5.789038E-1,-3.398292E-1,1.2519205E0,-1.0136322E0,1.4545525E0,1.1963606E0,1.2889974E0,9.837264E-1,1.3541347E0,9.1488403E-1,-4.737747E-1,6.842848E-1,-5.6091267E-1,2.5390002E-1,-5.315337E-1,-1.2701625E0,-6.427157E-1,-1.3438165E0,-7.4334747E-1,-1.2633284E0,8.4961206E-1,-3.826144E-1,7.2781575E-1,-2.9442621E-2,-4.4516113E-1,7.74939E-1,-1.1495728E0,-4.1377908E-1,1.2452928E-1,8.769694E-2,-9.285288E-2,7.094389E-2,-9.230961E-3,7.134932E-2,1.5003124E-3,-1.0966462E-1,-9.6066885E-2,6.931131E-2,-4.9292292E-2,1.1265477E-1,-1.7093682E-1,1.8531014E-1,-2.2642126E-2,-1.2436741E-1,1.5532973E-1,1.4193663E-1,1.2449197E-1,-1.9283523E-1,1.3264112E-1,8.492674E-2,7.483372E-2,1.2035538E-1,-1.9029425E-1,1.3600414E-1,1.1108853E-1,6.4444266E-2,-1.896568E-1,1.6003324E-2,1.16430834E-1,3.0500446E-2,-1.0579826E-1,-4.2706337E-2,4.557305E-2,-6.852857E-2,1.1984188E-2,-1.1439996E-1,-1.3885483E-1,-7.99725E-2,-1.1111684E-1,1.0525526E-1,-1.3185833E-1,-1.6909713E-1,-5.7902224E-2,-1.128387E-1,-5.3364582E-2,-1.3217558E-1,7.118848E-3,1.2542522E-1,9.459899E-3,-6.736317E-2,9.451923E-2,4.072001E-2,3.1263072E-2,-4.7272816E-2,3.286288E-2,-1.7880566E-1,1.02119975E-1,3.1187316E-2,-1.3779035E-1,-3.3557657E-2,-2.5246838E-2,-1.1179502E-1],"categories":[],"categories_nodes":[],"categories_segments":[],"categories_sizes":[],"default_left":[0,0,0,0,0,0,0,0,0,0,0,0,0,0,0,0,0,0,0,0,0,0,0,0,0,0,0,0,0,0,0,0,0,0,0,0,0,0,0,0,0,0,0,0,0,0,0,0,0,0,0,0,0,0,0,0,0,0,0,0,0,0,0,0,0,0,0,0,0,0,0,0,0,0,0,0,0,0,0,0,0,0,0,0,0,0,0,0,0,0,0,0,0,0,0,0,0,0,0,0,0,0,0,0,0,0,0,0,0,0,0,0,0,0,0,0,0,0,0,0,0,0,0,0,0,0,0],"id":3,"left_children":[1,3,5,7,9,11,13,15,17,19,21,23,25,27,29,31,33,35,37,39,41,43,45,47,49,51,53,55,57,59,61,63,65,67,69,71,73,75,77,79,81,83,85,87,89,91,93,95,97,99,101,103,105,107,109,111,113,115,117,119,121,123,125,-1,-1,-1,-1,-1,-1,-1,-1,-1,-1,-1,-1,-1,-1,-1,-1,-1,-1,-1,-1,-1,-1,-1,-1,-1,-1,-1,-1,-1,-1,-1,-1,-1,-1,-1,-1,-1,-1,-1,-1,-1,-1,-1,-1,-1,-1,-1,-1,-1,-1,-1,-1,-1,-1,-1,-1,-1,-1,-1,-1,-1,-1,-1,-1],"loss_changes":[1.3521003E5,1.1195133E4,3.9600766E4,6.7278135E3,1.3979844E3,6.9028984E3,8.0460537E3,3.756832E3,1.3344194E3,5.674297E2,8.829785E2,4.4633965E3,1.9863281E3,5.0700137E3,4.068117E3,1.0320762E3,2.1782493E3,8.589139E2,4.2046118E2,1.03578125E2,3.5800195E2,6.614922E2,5.703214E2,2.9272686E3,6.6193555E2,2.7846094E2,2.304629E3,1.5773273E3,2.652206E3,4.9566382E2,1.6534937E3,5.6334375E2,9.0995825E2,8.024326E2,1.010798E3,2.7285803E2,6.6704663E2,1.5441266E2,4.3541284E2,6.609766E1,2.645183E2,1.981211E2,2.9186914E2,1.0674219E2,4.970376E2,4.908058E2,3.551317E2,2.2444287E3,9.6171936E2,5.559381E2,5.327461E2,4.649124E2,2.1676172E2,1.2863252E3,6.25084E2,3.7049542E2,1.2294521E3,1.6899648E3,8.668203E2,3.9175455E2,3.3084216E2,7.29479E2,1.5605144E3,0E0,0E0,0E0,0E0,0E0,0E0,0E0,0E0,0E0,0E0,0E0,0E0,0E0,0E0,0E0,0E0,0E0,0E0,0E0,0E0,0E0,0E0,0E0,0E0,0E0,0E0,0E0,0E0,0E0,0E0,0E0,0E0,0E0,0E0,0E0,0E0,0E0,0E0,0E0,0E0,0E0,0E0,0E0,0E0,0E0,0E0,0E0,0E0,0E0,0E0,0E0,0E0,0E0,0E0,0E0,0E0,0E0,0E0,0E0,0E0,0E0,0E0,0E0,0E0],"parents":[2147483647,0,0,1,1,2,2,3,3,4,4,5,5,6,6,7,7,8,8,9,9,10,10,11,11,12,12,13,13,14,14,15,15,16,16,17,17,18,18,19,19,20,20,21,21,22,22,23,23,24,24,25,25,26,26,27,27,28,28,29,29,30,30,31,31,32,32,33,33,34,34,35,35,36,36,37,37,38,38,39,39,40,40,41,41,42,42,43,43,44,44,45,45,46,46,47,47,48,48,49,49,50,50,51,51,52,52,53,53,54,54,55,55,56,56,57,57,58,58,59,59,60,60,61,61,62,62],"right_children":[2,4,6,8,10,12,14,16,18,20,22,24,26,28,30,32,34,36,38,40,42,44,46,48,50,52,54,56,58,60,62,64,66,68,70,72,74,76,78,80,82,84,86,88,90,92,94,96,98,100,102,104,106,108,110,112,114,116,118,120,122,124,126,-1,-1,-1,-1,-1,-1,-1,-1,-1,-1,-1,-1,-1,-1,-1,-1,-1,-1,-1,-1,-1,-1,-1,-1,-1,-1,-1,-1,-1,-1,-1,-1,-1,-1,-1,-1,-1,-1,-1,-1,-1,-1,-1,-1,-1,-1,-1,-1,-1,-1,-1,-1,-1,-1,-1,-1,-1,-1,-1,-1,-1,-1,-1,-1],"split_conditions":[1E0,3E0,3E0,1E0,1E0,1E0,1E0,1E0,1E0,3E0,1E0,1E0,4E1,2.9E1,3E0,1E0,1E0,1E0,-1.7696548E0,1E0,1E0,4E0,7E-1,1.5E3,4E0,5.509735E-4,1E0,4E0,4E0,2.8E1,3.1E1,3E0,3.6E1,3.8E1,-4.5342386E-1,3.6E1,1E0,5.8035297E0,4.3452503E-3,4E0,1.1414728E1,2.3582846E1,2.5E1,3.1E1,1E0,1.21E3,1E0,1.8E1,1.6075504E1,1E0,1.99E2,2.9E1,4E0,4E0,3E0,2E0,2E0,1E0,1E0,8E0,1E0,1.35140295E1,4E0,1.2452928E-1,8.769694E-2,-9.285288E-2,7.094389E-2,-9.230961E-3,7.134932E-2,1.5003124E-3,-1.0966462E-1,-9.6066885E-2,6.931131E-2,-4.9292292E-2,1.1265477E-1,-1.7093682E-1,1.8531014E-1,-2.2642126E-2,-1.2436741E-1,1.5532973E-1,1.4193663E-1,1.2449197E-1,-1.9283523E-1,1.3264112E-1,8.492674E-2,7.483372E-2,1.2035538E-1,-1.9029425E-1,1.3600414E-1,1.1108853E-1,6.4444266E-2,-1.896568E-1,1.6003324E-2,1.16430834E-1,3.0500446E-2,-1.0579826E-1,-4.2706337E-2,4.557305E-2,-6.852857E-2,1.1984188E-2,-1.1439996E-1,-1.3885483E-1,-7.99725E-2,-1.1111684E-1,1.0525526E-1,-1.3185833E-1,-1.6909713E-1,-5.7902224E-2,-1.128387E-1,-5.3364582E-2,-1.3217558E-1,7.118848E-3,1.2542522E-1,9.459899E-3,-6.736317E-2,9.451923E-2,4.072001E-2,3.1263072E-2,-4.7272816E-2,3.286288E-2,-1.7880566E-1,1.02119975E-1,3.1187316E-2,-1.3779035E-1,-3.3557657E-2,-2.5246838E-2,-1.1179502E-1],"split_indices":[17,26,26,21,18,27,18,27,27,12,21,21,3,3,13,18,18,20,6,21,27,13,0,22,13,5,18,13,17,3,3,12,3,3,6,3,23,25,5,13,25,6,20,15,27,8,19,3,6,18,15,20,14,17,13,7,12,27,27,12,27,25,17,0,0,0,0,0,0,0,0,0,0,0,0,0,0,0,0,0,0,0,0,0,0,0,0,0,0,0,0,0,0,0,0,0,0,0,0,0,0,0,0,0,0,0,0,0,0,0,0,0,0,0,0,0,0,0,0,0,0,0,0,0,0,0,0],"split_type":[0,0,0,0,0,0,0,0,0,0,0,0,0,0,0,0,0,0,0,0,0,0,0,0,0,0,0,0,0,0,0,0,0,0,0,0,0,0,0,0,0,0,0,0,0,0,0,0,0,0,0,0,0,0,0,0,0,0,0,0,0,0,0,0,0,0,0,0,0,0,0,0,0,0,0,0,0,0,0,0,0,0,0,0,0,0,0,0,0,0,0,0,0,0,0,0,0,0,0,0,0,0,0,0,0,0,0,0,0,0,0,0,0,0,0,0,0,0,0,0,0,0,0,0,0,0,0],"sum_hessian":[2.728944E5,1.0151721E5,1.7137719E5,4.4959992E4,5.6557223E4,1.10433695E5,6.0943496E4,3.795498E4,7.0050117E3,3.9253855E4,1.730337E4,4.9793887E4,6.0639812E4,3.9995926E4,2.0947568E4,2.3130895E4,1.4824084E4,4.5153174E3,2.4896943E3,2.1470043E4,1.778381E4,1.4808283E4,2.495086E3,3.881336E4,1.0980525E4,2.56159E4,3.5023914E4,1.0026863E4,2.9969062E4,3.279496E3,1.7668072E4,1.7182701E4,5.948194E3,9.882563E3,4.941521E3,1.5471628E3,2.9681548E3,8.394812E1,2.405746E3,1.97431E4,1.7269443E3,1.21231045E4,5.6607056E3,5.415622E3,9.392661E3,5.427356E2,1.9523505E3,3.3742355E4,5.0710034E3,1.3919192E3,9.588606E3,5.82939E2,2.503296E4,2.0342203E4,1.4681709E4,1.1759492E3,8.850914E3,2.4254695E4,5.7143677E3,3.753005E2,2.9041958E3,3.9272888E3,1.3740783E4,1.0104237E4,7.0784644E3,3.601821E2,5.5880117E3,1.44741E3,8.435153E3,3.9081238E3,1.0333973E3,1.0627393E2,1.4408889E3,2.6882283E3,2.799263E2,1.3827436E1,7.012068E1,5.4458325E2,1.8611628E3,5.174821E3,1.4568279E4,1.7011417E3,2.5802685E1,1.1170442E4,9.5266205E2,2.7359426E3,2.924763E3,9.191408E0,5.4064307E3,5.4438076E3,3.9488538E3,1.6669608E2,3.760395E2,8.607003E2,1.0916501E3,7.156805E3,2.658555E4,4.1745225E3,8.964811E2,6.748439E2,7.170753E2,7.6590415E3,1.929565E3,4.5704697E2,1.2589207E2,2.3341459E4,1.6915029E3,1.4259409E4,6.082794E3,1.0893213E3,1.3592388E4,4.026935E2,7.7325574E2,3.3529846E3,5.497929E3,1.4453204E4,9.801491E3,3.225439E3,2.4889285E3,2.3853503E2,1.3676547E2,1.8950027E3,1.009193E3,3.0663457E3,8.609432E2,1.1180962E4,2.5598215E3],"tree_param":{"num_deleted":"0","num_feature":"31","num_nodes":"127","size_leaf_vector":"1"}},{"base_weights":[-6.2136026E-4,8.434822E-1,-4.9785885E-1,4.9826542E-1,1.1213949E0,-8.25252E-1,9.298439E-2,8.3787227E-1,1.5839882E-1,1.1791972E0,6.174683E-1,-5.342055E-1,-1.0217645E0,3.3035767E-1,-3.601719E-1,1.0108705E0,3.9856547E-1,4.1642168E-1,-3.5706928E-1,1.2615696E0,9.79633E-1,1.14182234E-1,8.207976E-1,-3.3492982E-1,-8.909639E-1,-8.687042E-1,-1.3017918E0,-3.2763866E-1,4.857287E-1,5.234144E-1,-5.1792794E-1,5.573849E-1,1.0860403E0,5.765852E-1,-3.818084E-1,4.3874152E-2,7.116716E-1,2.2945692E-1,-7.4761647E-1,1.3525068E0,1.1515186E0,1.2679206E0,7.97944E-1,2.8783947E-1,-1.1043935E0,1.0392015E0,4.3298706E-1,-7.208807E-1,-1.04191415E-1,-9.6649444E-1,4.475149E-1,-9.130298E-1,3.1149828E-1,-6.3947195E-1,-1.3504435E0,-4.8548087E-1,4.5578945E-1,8.3904827E-1,2.2338495E-1,-6.540528E-2,8.238331E-1,-9.0516657E-1,-2.4981585E-1,-1.2888743E-1,6.962298E-2,8.722441E-2,1.2081362E-1,-8.025994E-2,6.6919796E-2,-6.188169E-2,1.4926298E-1,5.4245826E-2,-1.7644225E-2,5.1280625E-2,1.15314E-1,-1.9229796E-2,7.207092E-2,-9.062192E-2,4.6144392E-2,1.2610285E-1,1.4122853E-1,1.2848775E-1,9.798979E-2,-2.1123925E-1,1.2731577E-1,5.0882388E-2,9.993243E-2,-2.8313396E-2,5.8657E-2,-1.9052134E-1,-7.2043613E-3,1.0637905E-1,-2.0891343E-1,7.410905E-2,-5.255693E-2,1.9359536E-2,-7.984914E-2,-5.3643156E-2,1.4480247E-2,-1.2338513E-1,-8.091309E-2,6.3380204E-2,-1.7104588E-1,-1.1638683E-1,-7.202944E-2,-1.6052691E-2,7.874891E-2,-1.03455245E-1,5.0402254E-2,-1.4010869E-1,-1.01444E-1,8.958069E-3,-7.154546E-2,1.1615451E-1,1.6870864E-2,6.030056E-2,1.0871122E-1,3.334126E-2,-7.150724E-2,1.9741645E-2,-1.4797394E-1,9.5767066E-2,-2.9761871E-2,-1.311149E-1,-7.11584E-2,-3.953607E-2,6.2906995E-2],"categories":[],"categories_nodes":[],"categories_segments":[],"categories_sizes":[],"default_left":[0,0,0,0,0,0,0,0,0,0,0,0,0,0,0,0,0,0,0,0,0,0,0,0,0,0,0,0,0,0,0,0,0,0,0,0,0,0,0,0,0,0,0,0,0,0,0,0,0,0,0,0,0,0,0,0,0,0,0,0,0,0,0,0,0,0,0,0,0,0,0,0,0,0,0,0,0,0,0,0,0,0,0,0,0,0,0,0,0,0,0,0,0,0,0,0,0,0,0,0,0,0,0,0,0,0,0,0,0,0,0,0,0,0,0,0,0,0,0,0,0,0,0,0,0,0,0],"id":4,"left_children":[1,3,5,7,9,11,13,15,17,19,21,23,25,27,29,31,33,35,37,39,41,43,45,47,49,51,53,55,57,59,61,63,65,67,69,71,73,75,77,79,81,83,85,87,89,91,93,95,97,99,101,103,105,107,109,111,113,115,117,119,121,123,125,-1,-1,-1,-1,-1,-1,-1,-1,-1,-1,-1,-1,-1,-1,-1,-1,-1,-1,-1,-1,-1,-1,-1,-1,-1,-1,-1,-1,-1,-1,-1,-1,-1,-1,-1,-1,-1,-1,-1,-1,-1,-1,-1,-1,-1,-1,-1,-1,-1,-1,-1,-1,-1,-1,-1,-1,-1,-1,-1,-1,-1,-1,-1,-1],"loss_changes":[1.1260862E5,9.541219E3,3.2659734E4,5.1197744E3,1.6040234E3,6.2128516E3,6.475558E3,1.6857139E3,2.9491675E3,8.110625E2,5.802439E2,3.1127422E3,2.7782188E3,4.0390103E3,2.8848406E3,5.418545E2,8.713727E2,1.6252625E3,1.6945789E3,3.4828906E2,7.5544336E2,3.4589273E2,3.415515E2,2.502063E3,1.5869805E3,2.1940781E3,7.373867E2,9.3346893E2,2.9621152E3,5.5475977E2,1.8227627E3,5.816229E2,3.5514355E2,6.5276526E2,5.1851263E2,7.179129E2,7.2295264E2,6.128972E2,8.519839E2,1.0266406E2,3.6093555E2,1.0143945E2,5.154419E2,2.4420111E2,1.6821533E2,2.0083594E2,4.3078293E2,7.46333E2,1.8928348E3,6.237832E2,3.3820282E2,1.9529453E3,3.413914E2,7.099702E2,3.6159766E2,8.309169E2,2.5616724E2,7.965664E2,1.8942155E3,3.9446906E2,3.119928E2,5.634116E2,1.327665E3,0E0,0E0,0E0,0E0,0E0,0E0,0E0,0E0,0E0,0E0,0E0,0E0,0E0,0E0,0E0,0E0,0E0,0E0,0E0,0E0,0E0,0E0,0E0,0E0,0E0,0E0,0E0,0E0,0E0,0E0,0E0,0E0,0E0,0E0,0E0,0E0,0E0,0E0,0E0,0E0,0E0,0E0,0E0,0E0,0E0,0E0,0E0,0E0,0E0,0E0,0E0,0E0,0E0,0E0,0E0,0E0,0E0,0E0,0E0,0E0,0E0,0E0,0E0,0E0],"parents":[2147483647,0,0,1,1,2,2,3,3,4,4,5,5,6,6,7,7,8,8,9,9,10,10,11,11,12,12,13,13,14,14,15,15,16,16,17,17,18,18,19,19,20,20,21,21,22,22,23,23,24,24,25,25,26,26,27,27,28,28,29,29,30,30,31,31,32,32,33,33,34,34,35,35,36,36,37,37,38,38,39,39,40,40,41,41,42,42,43,43,44,44,45,45,46,46,47,47,48,48,49,49,50,50,51,51,52,52,53,53,54,54,55,55,56,56,57,57,58,58,59,59,60,60,61,61,62,62],"right_children":[2,4,6,8,10,12,14,16,18,20,22,24,26,28,30,32,34,36,38,40,42,44,46,48,50,52,54,56,58,60,62,64,66,68,70,72,74,76,78,80,82,84,86,88,90,92,94,96,98,100,102,104,106,108,110,112,114,116,118,120,122,124,126,-1,-1,-1,-1,-1,-1,-1,-1,-1,-1,-1,-1,-1,-1,-1,-1,-1,-1,-1,-1,-1,-1,-1,-1,-1,-1,-1,-1,-1,-1,-1,-1,-1,-1,-1,-1,-1,-1,-1,-1,-1,-1,-1,-1,-1,-1,-1,-1,-1,-1,-1,-1,-1,-1,-1,-1,-1,-1,-1,-1,-1,-1,-1,-1],"split_conditions":[1E0,3E0,3E0,3.0163208E-1,1E0,3.2986867E-1,1E0,1E0,1E0,1E0,8E-1,1E0,1E0,1.8E1,3E0,1E0,1E0,1E0,2E0,3E0,4E0,8.460186E-1,1E0,3.6E1,2E0,2E0,3E0,2.13E2,3.06038E-1,1E0,1E0,3.4E1,1E0,3.3E1,7E1,4.2214087E3,2.49E2,5E1,2.87E2,1E0,3.6884928E-1,4.9266916E2,1E0,1.204E3,2.0185145E-2,3.598E3,6.70544E-1,4E0,1E0,6E-1,1E0,1E0,4E1,2.07E2,7E0,1.8817453E-1,6E0,1.49E2,1E0,5.317499E3,1E0,5E-1,2.27E2,-1.2888743E-1,6.962298E-2,8.722441E-2,1.2081362E-1,-8.025994E-2,6.6919796E-2,-6.188169E-2,1.4926298E-1,5.4245826E-2,-1.7644225E-2,5.1280625E-2,1.15314E-1,-1.9229796E-2,7.207092E-2,-9.062192E-2,4.6144392E-2,1.2610285E-1,1.4122853E-1,1.2848775E-1,9.798979E-2,-2.1123925E-1,1.2731577E-1,5.0882388E-2,9.993243E-2,-2.8313396E-2,5.8657E-2,-1.9052134E-1,-7.2043613E-3,1.0637905E-1,-2.0891343E-1,7.410905E-2,-5.255693E-2,1.9359536E-2,-7.984914E-2,-5.3643156E-2,1.4480247E-2,-1.2338513E-1,-8.091309E-2,6.3380204E-2,-1.7104588E-1,-1.1638683E-1,-7.202944E-2,-1.6052691E-2,7.874891E-2,-1.03455245E-1,5.0402254E-2,-1.4010869E-1,-1.01444E-1,8.958069E-3,-7.154546E-2,1.1615451E-1,1.6870864E-2,6.030056E-2,1.0871122E-1,3.334126E-2,-7.150724E-2,1.9741645E-2,-1.4797394E-1,9.5767066E-2,-2.9761871E-2,-1.311149E-1,-7.11584E-2,-3.953607E-2,6.2906995E-2],"split_indices":[17,26,26,1,21,1,18,18,18,18,0,18,18,3,13,7,21,16,12,12,13,1,18,3,28,28,13,15,1,16,16,3,16,3,4,11,15,4,15,16,1,9,16,8,5,8,1,13,16,0,21,16,4,15,30,1,13,15,21,11,21,0,15,0,0,0,0,0,0,0,0,0,0,0,0,0,0,0,0,0,0,0,0,0,0,0,0,0,0,0,0,0,0,0,0,0,0,0,0,0,0,0,0,0,0,0,0,0,0,0,0,0,0,0,0,0,0,0,0,0,0,0,0,0,0,0,0],"split_type":[0,0,0,0,0,0,0,0,0,0,0,0,0,0,0,0,0,0,0,0,0,0,0,0,0,0,0,0,0,0,0,0,0,0,0,0,0,0,0,0,0,0,0,0,0,0,0,0,0,0,0,0,0,0,0,0,0,0,0,0,0,0,0,0,0,0,0,0,0,0,0,0,0,0,0,0,0,0,0,0,0,0,0,0,0,0,0,0,0,0,0,0,0,0,0,0,0,0,0,0,0,0,0,0,0,0,0,0,0,0,0,0,0,0,0,0,0,0,0,0,0,0,0,0,0,0,0],"sum_hessian":[2.6829275E5,9.945626E4,1.6883648E5,4.4358402E4,5.5097855E4,1.0863844E5,6.0198043E4,2.2186799E4,2.2171604E4,4.942686E4,5.670995E3,4.3788836E4,6.4849598E4,3.9504965E4,2.0693082E4,1.5917132E4,6.2696675E3,1.4775808E4,7.3957964E3,3.498187E4,1.444499E4,1.6324255E3,4.0385696E3,2.8096889E4,1.5691948E4,4.1933566E4,2.2916031E4,7.5459805E3,3.1958982E4,3.1344087E3,1.7558672E4,2.2646504E3,1.3652481E4,5.1054062E3,1.1642614E3,6.533411E3,8.242396E3,2.956245E3,4.4395513E3,1.9147645E4,1.5834227E4,5.581788E3,8.863202E3,1.4295487E3,2.028768E2,2.5823345E3,1.4562352E3,1.0511683E4,1.7585207E4,1.4854083E4,8.3786566E2,4.041595E4,1.5176166E3,1.5692504E3,2.1346781E4,6.281013E3,1.2649675E3,1.3617122E4,1.8341861E4,1.059075E3,2.0753337E3,7.182345E3,1.0376327E4,1.5776758E2,2.1068828E3,4.9659E3,8.686582E3,3.20707E2,4.784699E3,1.0342158E3,1.3004553E2,2.0019398E3,4.531471E3,5.684241E3,2.5581553E3,1.590854E3,1.3653911E3,3.9250076E3,5.145435E2,7.57678E3,1.1570864E4,8.906396E3,6.92783E3,7.982566E0,5.5738057E3,3.6405361E3,5.222666E3,4.9093195E2,9.3861676E2,1.13719406E2,8.9157394E1,2.562882E3,1.945246E1,1.1022699E3,3.5396527E2,8.221085E2,9.689574E3,6.4271914E3,1.1158016E4,5.50083E3,9.353253E3,7.719773E2,6.588834E1,1.7558545E4,2.2857404E4,7.622098E2,7.5540686E2,1.1664287E3,4.0282166E2,1.8547746E4,2.7990356E3,1.7943414E3,4.4866714E3,3.6478662E2,9.001809E2,6.9795933E3,6.6375293E3,1.6417744E4,1.9241158E3,8.937767E2,1.652983E2,1.8542742E3,2.2105965E2,2.316945E3,4.8654004E3,8.902691E3,1.4736356E3],"tree_param":{"num_deleted":"0","num_feature":"31","num_nodes":"127","size_leaf_vector":"1"}},{"base_weights":[3.420807E-3,7.738306E-1,-4.4447002E-1,4.4697016E-1,1.0409411E0,-7.5565726E-1,1.04371026E-1,5.9167236E-1,-3.0830008E-1,1.1421596E0,8.434667E-1,-4.8104393E-1,-9.890137E-1,3.9179614E-1,-2.2553445E-1,8.286871E-1,2.3047218E-1,6.5716174E-3,-8.990824E-1,1.1836816E0,8.445371E-1,9.1602397E-1,1.2664469E-1,-2.894416E-1,-9.000208E-1,-8.846857E-1,-1.2385187E0,5.134715E-1,-3.531621E-1,-4.5149684E-2,-8.501914E-1,8.869741E-1,1.0763474E-1,4.5225567E-1,-2.0275645E-1,1.14490375E-1,-9.4288343E-1,-4.5724735E-1,-1.2444409E0,1.2361484E0,1.0418165E0,5.4834765E-1,1.0618258E0,7.055448E-1,1.0444098E0,2.4910483E-1,-1.9212201E-1,-1.1298259E-1,-8.1627965E-1,-1.2560854E0,-7.334374E-1,-1.0346799E0,-6.13916E-1,-1.2731968E0,-8.4898734E-1,7.829319E-2,6.4699215E-1,-1.8538012E-1,-1.4306871E0,8.044273E-2,-1.0515887E0,-1.0003228E0,2.0025128E-1,9.6082054E-2,5.6175917E-2,-1.0219909E-1,4.1292187E-2,5.5276837E-2,-3.6594044E-2,1.579835E-4,-9.821794E-2,2.9650593E-2,-5.2235026E-2,-1.2244586E-1,8.561743E-2,5.9137035E-2,-8.796552E-2,1.3966306E-1,-1.3011494E-1,1.2564005E-1,9.867371E-2,-2.3548701E-1,1.0511633E-1,7.70281E-2,-1.4899318E-2,1.078254E-1,-2.119611E-1,-2.9736966E-2,7.645909E-2,6.3145354E-2,1.09786324E-1,-3.6659252E-2,6.717937E-2,5.807617E-3,-6.4201355E-2,-1.070918E-1,-4.7825262E-2,-1.3703336E-1,-9.811855E-3,-1.15013756E-1,-5.5514485E-2,-1.1843605E-1,-7.8234546E-2,-4.999875E-2,-1.2658001E-1,-1.1668115E-1,-1.3828252E-1,1.4358701E-1,-9.5226996E-2,-4.5936115E-2,3.8068954E-2,8.141197E-2,2.5615385E-2,-5.312978E-2,3.3046253E-2,-1.6826496E-1,6.198169E-2,2.366119E-2,-5.8244836E-2,1.4958891E-1,-1.10876754E-1,-1.1683921E-1,-4.9437102E-2,-1.7671755E-1,4.7391053E-2],"categories":[],"categories_nodes":[],"categories_segments":[],"categories_sizes":[],"default_left":[0,0,0,0,0,0,0,0,0,0,0,0,0,0,0,0,0,0,0,0,0,0,0,0,0,0,0,0,0,0,0,0,0,0,0,0,0,0,0,0,0,0,0,0,0,0,0,0,0,0,0,0,0,0,0,0,0,0,0,0,0,0,0,0,0,0,0,0,0,0,0,0,0,0,0,0,0,0,0,0,0,0,0,0,0,0,0,0,0,0,0,0,0,0,0,0,0,0,0,0,0,0,0,0,0,0,0,0,0,0,0,0,0,0,0,0,0,0,0,0,0,0,0,0,0],"id":5,"left_children":[1,3,5,7,9,11,13,15,17,19,21,23,25,27,29,31,33,35,37,39,41,43,45,47,49,51,53,55,57,59,61,63,65,67,69,71,73,75,77,79,81,83,85,87,89,91,-1,93,95,97,99,101,103,105,107,109,111,113,115,117,119,121,123,-1,-1,-1,-1,-1,-1,-1,-1,-1,-1,-1,-1,-1,-1,-1,-1,-1,-1,-1,-1,-1,-1,-1,-1,-1,-1,-1,-1,-1,-1,-1,-1,-1,-1,-1,-1,-1,-1,-1,-1,-1,-1,-1,-1,-1,-1,-1,-1,-1,-1,-1,-1,-1,-1,-1,-1,-1,-1,-1,-1,-1,-1],"loss_changes":[9.132664E4,8.494609E3,2.8585188E4,4.782587E3,1.069082E3,6.843949E3,5.742582E3,3.1435986E3,1.3089968E3,4.3622266E2,9.4370605E2,3.9387197E3,1.5017031E3,2.9337803E3,3.177044E3,9.316914E2,1.3982722E3,4.704236E2,3.725697E2,2.2966797E2,2.7840747E2,4.4442676E2,4.1898108E2,3.1301885E3,9.12167E2,1.6529727E3,2.2864453E2,1.6164077E3,8.211518E2,2.7658286E3,9.9663135E2,4.9198242E2,5.7268805E2,7.917665E2,7.848926E2,4.780835E2,2.3844922E2,4.7672375E2,2.0735913E2,1.1303516E2,2.6879688E2,2.8459015E2,1.3288037E2,3.7022437E2,2.2503809E2,4.104778E2,0E0,2.2828672E3,7.265093E2,6.487622E2,7.787178E2,9.8851953E2,1.0774443E3,1.8040234E2,3.3046027E2,1.0623551E3,1.390252E3,7.0205994E2,3.1736194E2,2.0139714E3,3.5523022E2,4.6933252E2,4.2647482E2,0E0,0E0,0E0,0E0,0E0,0E0,0E0,0E0,0E0,0E0,0E0,0E0,0E0,0E0,0E0,0E0,0E0,0E0,0E0,0E0,0E0,0E0,0E0,0E0,0E0,0E0,0E0,0E0,0E0,0E0,0E0,0E0,0E0,0E0,0E0,0E0,0E0,0E0,0E0,0E0,0E0,0E0,0E0,0E0,0E0,0E0,0E0,0E0,0E0,0E0,0E0,0E0,0E0,0E0,0E0,0E0,0E0,0E0,0E0,0E0,0E0,0E0],"parents":[2147483647,0,0,1,1,2,2,3,3,4,4,5,5,6,6,7,7,8,8,9,9,10,10,11,11,12,12,13,13,14,14,15,15,16,16,17,17,18,18,19,19,20,20,21,21,22,22,23,23,24,24,25,25,26,26,27,27,28,28,29,29,30,30,31,31,32,32,33,33,34,34,35,35,36,36,37,37,38,38,39,39,40,40,41,41,42,42,43,43,44,44,45,45,47,47,48,48,49,49,50,50,51,51,52,52,53,53,54,54,55,55,56,56,57,57,58,58,59,59,60,60,61,61,62,62],"right_children":[2,4,6,8,10,12,14,16,18,20,22,24,26,28,30,32,34,36,38,40,42,44,46,48,50,52,54,56,58,60,62,64,66,68,70,72,74,76,78,80,82,84,86,88,90,92,-1,94,96,98,100,102,104,106,108,110,112,114,116,118,120,122,124,-1,-1,-1,-1,-1,-1,-1,-1,-1,-1,-1,-1,-1,-1,-1,-1,-1,-1,-1,-1,-1,-1,-1,-1,-1,-1,-1,-1,-1,-1,-1,-1,-1,-1,-1,-1,-1,-1,-1,-1,-1,-1,-1,-1,-1,-1,-1,-1,-1,-1,-1,-1,-1,-1,-1,-1,-1,-1,-1,-1,-1,-1],"split_conditions":[1E0,3E0,3E0,1E0,1E0,1E0,1E0,1E0,1E0,1E0,1E0,1E0,6E0,1E0,6E0,6E0,1E0,3.8058956E1,-8.9282274E-1,1E0,9E-1,8E-1,8.321022E3,6E0,5E-1,1.742E3,7.067831E3,3E1,1.5E1,1E0,2.26E2,-4.1078293E-1,3.4E1,6E0,-4.5342386E-1,2.1225838E-2,6.3352715E3,4.3452503E-3,1.1178207E-4,2.4780521E0,6.32256E2,1.74E2,1.02149185E2,3E1,4.4E1,5.0389844E3,-1.9212201E-1,-1.2775655E-1,4.9E2,6.366076E3,3.7E1,8E-1,1E0,5.2545854E3,3.3552998E3,4.6E1,1E0,5.1E2,6E1,4E0,3.0396392E3,9E-1,2.8E1,9.6082054E-2,5.6175917E-2,-1.0219909E-1,4.1292187E-2,5.5276837E-2,-3.6594044E-2,1.579835E-4,-9.821794E-2,2.9650593E-2,-5.2235026E-2,-1.2244586E-1,8.561743E-2,5.9137035E-2,-8.796552E-2,1.3966306E-1,-1.3011494E-1,1.2564005E-1,9.867371E-2,-2.3548701E-1,1.0511633E-1,7.70281E-2,-1.4899318E-2,1.078254E-1,-2.119611E-1,-2.9736966E-2,7.645909E-2,6.3145354E-2,1.09786324E-1,-3.6659252E-2,6.717937E-2,5.807617E-3,-6.4201355E-2,-1.070918E-1,-4.7825262E-2,-1.3703336E-1,-9.811855E-3,-1.15013756E-1,-5.5514485E-2,-1.1843605E-1,-7.8234546E-2,-4.999875E-2,-1.2658001E-1,-1.1668115E-1,-1.3828252E-1,1.4358701E-1,-9.5226996E-2,-4.5936115E-2,3.8068954E-2,8.141197E-2,2.5615385E-2,-5.312978E-2,3.3046253E-2,-1.6826496E-1,6.198169E-2,2.366119E-2,-5.8244836E-2,1.4958891E-1,-1.10876754E-1,-1.1683921E-1,-4.9437102E-2,-1.7671755E-1,4.7391053E-2],"split_indices":[17,26,26,21,27,27,27,27,27,21,21,18,2,21,2,2,18,6,6,18,0,0,9,2,0,8,10,4,2,21,15,6,2,2,6,5,11,5,5,6,9,3,6,3,3,9,0,6,22,11,3,0,21,9,11,3,18,22,4,17,11,0,2,0,0,0,0,0,0,0,0,0,0,0,0,0,0,0,0,0,0,0,0,0,0,0,0,0,0,0,0,0,0,0,0,0,0,0,0,0,0,0,0,0,0,0,0,0,0,0,0,0,0,0,0,0,0,0,0,0,0,0,0,0,0],"split_type":[0,0,0,0,0,0,0,0,0,0,0,0,0,0,0,0,0,0,0,0,0,0,0,0,0,0,0,0,0,0,0,0,0,0,0,0,0,0,0,0,0,0,0,0,0,0,0,0,0,0,0,0,0,0,0,0,0,0,0,0,0,0,0,0,0,0,0,0,0,0,0,0,0,0,0,0,0,0,0,0,0,0,0,0,0,0,0,0,0,0,0,0,0,0,0,0,0,0,0,0,0,0,0,0,0,0,0,0,0,0,0,0,0,0,0,0,0,0,0,0,0,0,0,0,0],"sum_hessian":[2.646672E5,9.730092E4,1.6736625E5,4.3757883E4,5.354304E4,1.06807375E5,6.0558883E4,3.672256E4,7.035325E3,3.539534E4,1.81477E4,4.9067875E4,5.7739496E4,3.2363121E4,2.8195762E4,2.2172012E4,1.4550547E4,4.589865E3,2.4454597E3,3.1058916E4,4.3364233E3,1.647924E4,1.668458E3,3.3671492E4,1.5396387E4,4.071844E4,1.7021053E4,2.7819723E4,4.5433994E3,2.1878926E4,6.316835E3,2.051342E4,1.6585913E3,9.623936E3,4.9266113E3,4.122294E3,4.6757126E2,1.0740216E3,1.3714381E3,2.266733E4,8.391586E3,1.8367316E3,2.499692E3,6.2462485E3,1.0232992E4,1.5751904E3,9.326753E1,2.5224281E4,8.447208E3,4.9050073E3,1.0491379E4,2.6201055E4,1.4517388E4,1.5627304E4,1.3937489E3,6.532136E3,2.1287586E4,3.932355E3,6.1104425E2,1.9452314E4,2.426612E3,5.527042E3,7.897932E2,1.671556E4,3.7978591E3,3.5230704E2,1.3062843E3,8.571413E3,1.0525228E3,3.9039956E3,1.0226157E3,3.2065273E3,9.157668E2,4.0461838E2,6.2952877E1,3.0822455E2,7.6579706E2,2.8294462E1,1.3431437E3,2.0960871E4,1.7064603E3,2.2310406E1,8.369275E3,1.3933328E3,4.4339874E2,2.4875393E3,1.2152541E1,3.469788E2,5.8992695E3,1.1744467E3,9.058546E3,6.411598E2,9.3403064E2,1.9061553E4,6.1627295E3,4.816465E3,3.6307434E3,4.46428E3,4.4072794E2,3.1419932E3,7.3493857E3,1.6443152E4,9.757902E3,1.2359299E4,2.1580896E3,7.9373315E3,7.6899727E3,5.9677185E1,1.3340717E3,2.3510928E3,4.1810435E3,1.4910375E4,6.377211E3,2.3539736E3,1.5783815E3,5.4437994E2,6.6664314E1,1.5744009E4,3.7083052E3,5.2679558E1,2.3739326E3,4.147726E3,1.3793159E3,9.573069E1,6.940625E2],"tree_param":{"num_deleted":"0","num_feature":"31","num_nodes":"125","size_leaf_vector":"1"}},{"base_weights":[3.526894E-3,-3.693086E-1,4.9741215E-1,-7.4932605E-1,-1.2445305E-1,2.529655E-1,8.72621E-1,-4.56449E-1,-9.423322E-1,2.2889666E-1,-4.1894427E-1,5.8867705E-1,-4.0360704E-2,9.5288056E-1,3.07033E-1,-3.3005828E-1,-1.1271192E0,-9.941963E-1,-6.839586E-2,4.6712112E-1,-2.3795694E-1,-1.9575167E-1,-8.032819E-1,3.6043536E-2,7.1623975E-1,3.7478572E-1,-3.7231013E-1,5.1900995E-1,1.0182772E0,-1.1682679E-1,6.9913733E-1,-5.188897E-1,1.4505567E-1,-1.1631445E0,1.4348894E0,-1.1029094E0,-6.5286136E-1,3.5416722E-1,-1.0453101E0,2.0401524E-1,8.3072317E-1,6.190685E-1,-4.0741742E-1,-6.350011E-1,6.846261E-2,-1.6809969E-1,-9.4434065E-1,2.779812E-1,-6.8118244E-1,8.797318E-1,4.0820697E-1,-1.878333E-1,5.868479E-1,-4.793335E-1,5.8290553E-1,8.896227E-1,2.2175564E-1,1.1530038E0,8.6455554E-1,-7.1817833E-1,3.2866916E-1,8.9532906E-1,-2.7210189E-2,-6.66316E-2,-7.691573E-3,1.0436436E-1,-7.00235E-3,-1.4854763E-1,-9.594576E-2,1.8161981E-1,-1.4598423E-1,-1.1332933E-1,-2.0920021E-2,-7.6470226E-2,2.9285772E-2,-4.4064396E-3,1.05420746E-1,4.851457E-2,-1.3697469E-1,5.996103E-2,-8.236177E-3,1.0569432E-1,5.9682336E-2,6.6729814E-2,-1.7500125E-1,-2.2208922E-2,-1.07004516E-1,-3.1166637E-2,-8.4622346E-2,-3.197297E-2,3.641231E-2,-7.319867E-2,4.3712392E-2,-9.994768E-2,-1.789364E-2,1.48311425E-2,1.3494569E-1,-1.672703E-1,-2.4385614E-2,1.0760885E-1,7.075463E-2,8.961328E-2,1.6293166E-2,-4.723191E-2,4.1113324E-2,7.912616E-2,8.846196E-3,-7.186851E-2,-1.4602812E-2,6.383311E-2,-1.932174E-1,9.4173834E-2,-1.9112001E-1,-4.238185E-2,5.0975926E-2,1.0323223E-1,1.2626742E-1,7.037597E-2,1.0726025E-1,-1.9808352E-2,-1.6097252E-1,4.7780797E-2,-1.8555085E-1,-1.7387456E-1,9.454302E-2,-9.158908E-2,5.2061748E-2],"categories":[],"categories_nodes":[],"categories_segments":[],"categories_sizes":[],"default_left":[0,0,0,0,0,0,0,0,0,0,0,0,0,0,0,0,0,0,0,0,0,0,0,0,0,0,0,0,0,0,0,0,0,0,0,0,0,0,0,0,0,0,0,0,0,0,0,0,0,0,0,0,0,0,0,0,0,0,0,0,0,0,0,0,0,0,0,0,0,0,0,0,0,0,0,0,0,0,0,0,0,0,0,0,0,0,0,0,0,0,0,0,0,0,0,0,0,0,0,0,0,0,0,0,0,0,0,0,0,0,0,0,0,0,0,0,0,0,0,0,0,0,0,0,0,0,0],"id":6,"left_children":[1,3,5,7,9,11,13,15,17,19,21,23,25,27,29,31,33,35,37,39,41,43,45,47,49,51,53,55,57,59,61,63,65,67,69,71,73,75,77,79,81,83,85,87,89,91,93,95,97,99,101,103,105,107,109,111,113,115,117,119,121,123,125,-1,-1,-1,-1,-1,-1,-1,-1,-1,-1,-1,-1,-1,-1,-1,-1,-1,-1,-1,-1,-1,-1,-1,-1,-1,-1,-1,-1,-1,-1,-1,-1,-1,-1,-1,-1,-1,-1,-1,-1,-1,-1,-1,-1,-1,-1,-1,-1,-1,-1,-1,-1,-1,-1,-1,-1,-1,-1,-1,-1,-1,-1,-1,-1],"loss_changes":[4.792038E4,1.3798477E4,1.0267352E4,3.284127E3,9.38478E3,6.675295E3,2.0042422E3,1.9562656E3,1.5873633E3,4.5596426E3,4.219382E3,2.2282646E3,4.9857725E3,1.0966133E3,9.1249316E2,1.7428923E3,3.394458E2,1.2259824E3,8.10909E2,2.5966484E3,2.012002E3,3.6118354E3,1.6188574E3,1.0290234E3,1.2928701E3,1.9180688E3,2.0555247E3,5.579938E2,6.9479297E2,7.071828E2,4.0651318E2,9.056465E2,1.0680466E3,2.3533203E2,5.9156258E1,6.805039E2,8.4529565E2,3.8240143E2,2.95265E2,1.7845051E3,6.0219385E2,2.6238562E2,1.4199805E3,7.979165E2,2.230482E3,1.1215214E3,6.237295E2,6.157726E2,6.4799744E2,5.662539E2,1.0656715E3,7.5012537E2,1.1892571E3,1.4421196E3,2.835141E2,3.3087244E2,5.233719E2,2.3545898E2,5.2431055E2,5.203785E2,4.9469937E2,2.9790564E2,2.9620395E2,0E0,0E0,0E0,0E0,0E0,0E0,0E0,0E0,0E0,0E0,0E0,0E0,0E0,0E0,0E0,0E0,0E0,0E0,0E0,0E0,0E0,0E0,0E0,0E0,0E0,0E0,0E0,0E0,0E0,0E0,0E0,0E0,0E0,0E0,0E0,0E0,0E0,0E0,0E0,0E0,0E0,0E0,0E0,0E0,0E0,0E0,0E0,0E0,0E0,0E0,0E0,0E0,0E0,0E0,0E0,0E0,0E0,0E0,0E0,0E0,0E0,0E0,0E0,0E0],"parents":[2147483647,0,0,1,1,2,2,3,3,4,4,5,5,6,6,7,7,8,8,9,9,10,10,11,11,12,12,13,13,14,14,15,15,16,16,17,17,18,18,19,19,20,20,21,21,22,22,23,23,24,24,25,25,26,26,27,27,28,28,29,29,30,30,31,31,32,32,33,33,34,34,35,35,36,36,37,37,38,38,39,39,40,40,41,41,42,42,43,43,44,44,45,45,46,46,47,47,48,48,49,49,50,50,51,51,52,52,53,53,54,54,55,55,56,56,57,57,58,58,59,59,60,60,61,61,62,62],"right_children":[2,4,6,8,10,12,14,16,18,20,22,24,26,28,30,32,34,36,38,40,42,44,46,48,50,52,54,56,58,60,62,64,66,68,70,72,74,76,78,80,82,84,86,88,90,92,94,96,98,100,102,104,106,108,110,112,114,116,118,120,122,124,126,-1,-1,-1,-1,-1,-1,-1,-1,-1,-1,-1,-1,-1,-1,-1,-1,-1,-1,-1,-1,-1,-1,-1,-1,-1,-1,-1,-1,-1,-1,-1,-1,-1,-1,-1,-1,-1,-1,-1,-1,-1,-1,-1,-1,-1,-1,-1,-1,-1,-1,-1,-1,-1,-1,-1,-1,-1,-1,-1,-1,-1,-1,-1,-1],"split_conditions":[3E0,4.9E1,1.98E2,3.106579E-1,3.249194E-1,3.2986867E-1,1E0,1E0,2.49E2,1E0,1E0,3.1E1,3E0,3.7E1,9E-1,1.58E2,1.9E3,9E-1,1E1,1.69E2,3E0,6E-1,4E0,1E0,1E0,4.4E1,6E1,2E0,4.439447E-1,2.44E2,7.4432504E-1,9E-1,4E0,7E-1,1E0,2E0,6.2989033E3,2.94E2,1.661107E-3,2E0,3E0,2.9712757E-1,1E0,2E0,1E0,5.1E2,2.65E2,2E0,1E0,3E0,4E0,9E-1,1E0,8E-1,1E1,1.7E1,2.26E2,9E-1,2.65E2,8E0,5E2,1.2E1,4.6284914E0,-6.66316E-2,-7.691573E-3,1.0436436E-1,-7.00235E-3,-1.4854763E-1,-9.594576E-2,1.8161981E-1,-1.4598423E-1,-1.1332933E-1,-2.0920021E-2,-7.6470226E-2,2.9285772E-2,-4.4064396E-3,1.05420746E-1,4.851457E-2,-1.3697469E-1,5.996103E-2,-8.236177E-3,1.0569432E-1,5.9682336E-2,6.6729814E-2,-1.7500125E-1,-2.2208922E-2,-1.07004516E-1,-3.1166637E-2,-8.4622346E-2,-3.197297E-2,3.641231E-2,-7.319867E-2,4.3712392E-2,-9.994768E-2,-1.789364E-2,1.48311425E-2,1.3494569E-1,-1.672703E-1,-2.4385614E-2,1.0760885E-1,7.075463E-2,8.961328E-2,1.6293166E-2,-4.723191E-2,4.1113324E-2,7.912616E-2,8.846196E-3,-7.186851E-2,-1.4602812E-2,6.383311E-2,-1.932174E-1,9.4173834E-2,-1.9112001E-1,-4.238185E-2,5.0975926E-2,1.0323223E-1,1.2626742E-1,7.037597E-2,1.0726025E-1,-1.9808352E-2,-1.6097252E-1,4.7780797E-2,-1.8555085E-1,-1.7387456E-1,9.454302E-2,-9.158908E-2,5.2061748E-2],"split_indices":[26,3,15,1,1,1,21,21,15,18,18,3,12,3,0,15,22,0,13,15,13,0,13,18,18,3,4,12,1,15,1,0,13,0,12,28,11,15,5,12,12,1,21,12,16,22,15,28,16,12,13,0,18,0,13,13,15,0,15,13,12,3,25,0,0,0,0,0,0,0,0,0,0,0,0,0,0,0,0,0,0,0,0,0,0,0,0,0,0,0,0,0,0,0,0,0,0,0,0,0,0,0,0,0,0,0,0,0,0,0,0,0,0,0,0,0,0,0,0,0,0,0,0,0,0,0,0],"split_type":[0,0,0,0,0,0,0,0,0,0,0,0,0,0,0,0,0,0,0,0,0,0,0,0,0,0,0,0,0,0,0,0,0,0,0,0,0,0,0,0,0,0,0,0,0,0,0,0,0,0,0,0,0,0,0,0,0,0,0,0,0,0,0,0,0,0,0,0,0,0,0,0,0,0,0,0,0,0,0,0,0,0,0,0,0,0,0,0,0,0,0,0,0,0,0,0,0,0,0,0,0,0,0,0,0,0,0,0,0,0,0,0,0,0,0,0,0,0,0,0,0,0,0,0,0,0,0],"sum_hessian":[2.6023969E5,1.4829294E5,1.1194674E5,5.8107395E4,9.018555E4,6.778627E4,4.416047E4,2.3083396E4,3.5023996E4,4.0995895E4,4.9189656E4,3.1609066E4,3.617721E4,3.8671887E4,5.4885806E3,1.942442E4,3.658975E3,3.3061688E4,1.9623093E3,2.7144768E4,1.3851126E4,3.1119629E4,1.8070027E4,5.928293E3,2.5680773E4,1.6074058E4,2.0103152E4,5.066815E3,3.360507E4,2.6377036E3,2.850877E3,1.3900043E4,5.524378E3,3.6088154E3,5.0159615E1,2.5073424E4,7.9882646E3,1.3701763E3,5.92133E2,1.5749857E4,1.139491E4,2.286119E3,1.1565007E4,1.1687851E4,1.9431777E4,3.2842183E3,1.4785809E4,4.4335137E3,1.4947793E3,1.6775043E4,8.905731E3,4.4000347E3,1.1674022E4,1.807825E4,2.0249033E3,2.2541018E3,2.8127131E3,1.7905205E4,1.5699867E4,1.122335E3,1.5153687E3,2.2445208E3,6.063562E2,1.0422686E4,3.4773572E3,1.0662522E3,4.4581255E3,1.3947915E3,2.214024E3,4.4681126E1,5.4784913E0,2.4248654E4,8.2476935E2,7.143742E3,8.4452264E2,8.7385876E2,4.963175E2,1.03428665E2,4.8870435E2,6.613444E3,9.136413E3,5.7905444E3,5.6043657E3,2.2412522E3,4.4866776E1,9.038535E3,2.5264722E3,4.619446E3,7.068405E3,8.401055E3,1.1030723E4,1.7001467E3,1.5840714E3,1.3791869E4,9.9393915E2,3.955992E3,4.7752158E2,4.5657166E2,1.0382076E3,7.834693E3,8.94035E3,2.9781804E3,5.9275513E3,2.9834094E3,1.4166249E3,8.278001E3,3.3960217E3,1.0521294E4,7.556956E3,1.9820111E3,4.289217E1,2.213612E3,4.0489784E1,8.674541E2,1.9452592E3,8.530038E3,9.375167E3,8.858305E3,6.841562E3,7.096729E2,4.1266208E2,1.4192848E3,9.608381E1,4.1228413E1,2.2032925E3,2.3105376E2,3.7530243E2],"tree_param":{"num_deleted":"0","num_feature":"31","num_nodes":"127","size_leaf_vector":"1"}},{"base_weights":[1.1715157E-2,6.920514E-1,-3.802633E-1,4.350732E-1,9.136198E-1,-6.477402E-1,8.03339E-2,7.2647274E-1,1.3043277E-1,7.244613E-1,1.0390221E0,-3.9919364E-1,-8.625422E-1,2.8358462E-1,-3.0970567E-1,4.3018475E-1,9.052554E-1,4.0977114E-1,-2.749338E-1,9.3402386E-1,5.467953E-1,1.1671351E0,9.00458E-1,-2.6365072E-1,-8.9696145E-1,-1.0885049E0,-6.928318E-1,4.5315203E-1,-3.429499E-1,3.7520632E-1,-5.1625156E-1,6.367823E-1,-3.9703555E-2,1.0419152E0,6.031712E-1,6.7263365E-1,9.360888E-2,-1.2090233E-1,-1.0627121E0,1.0417792E0,6.848861E-1,4.3727672E-1,1.2314975E0,1.2575171E0,1.1051533E0,9.530843E-1,4.7093883E-1,-1.2015952E-1,-7.471843E-1,-2.4796593E-1,-9.9747545E-1,-1.2023501E0,-9.096895E-1,-4.2391485E-1,-8.924973E-1,3.3315497E-3,5.849106E-1,-5.2560735E-1,4.4233504E-1,-6.258888E-1,5.127113E-1,-2.3962252E-1,-7.842129E-1,9.053461E-2,3.6917776E-2,6.051412E-2,-3.369806E-2,1.10472634E-1,6.2190056E-2,7.7720605E-2,1.2812513E-2,1.1094089E-1,5.216561E-2,-1.1683366E-2,7.3368736E-2,9.34034E-3,-5.126192E-2,2.0975387E-2,-1.2454774E-1,1.0576352E-1,2.588327E-2,-9.344798E-2,7.661254E-2,6.89021E-2,1.765002E-2,-2.0753895E-1,1.2444299E-1,1.2666807E-1,1.028307E-1,1.139819E-1,7.751799E-2,9.833739E-2,3.6792494E-2,6.912236E-2,-1.5460352E-2,3.8217441E-3,-6.291705E-2,-8.612779E-2,5.2182535E-3,-1.5884794E-1,-3.1631708E-3,-5.767713E-2,-1.0895407E-1,-8.864192E-2,-1.2686707E-1,2.25093E-2,-9.5758475E-2,-3.1548187E-2,-1.136684E-1,-9.704509E-2,-3.9969042E-2,-8.729721E-3,1.163604E-1,6.622085E-2,-7.441424E-3,-6.101156E-2,7.082728E-2,-2.9745424E-2,8.735114E-2,-9.85289E-2,5.6524362E-2,7.578039E-2,1.2269095E-2,2.5022242E-2,-4.527794E-2,-1.0110793E-1,-2.6122931E-2],"categories":[],"categories_nodes":[],"categories_segments":[],"categories_sizes":[],"default_left":[0,0,0,0,0,0,0,0,0,0,0,0,0,0,0,0,0,0,0,0,0,0,0,0,0,0,0,0,0,0,0,0,0,0,0,0,0,0,0,0,0,0,0,0,0,0,0,0,0,0,0,0,0,0,0,0,0,0,0,0,0,0,0,0,0,0,0,0,0,0,0,0,0,0,0,0,0,0,0,0,0,0,0,0,0,0,0,0,0,0,0,0,0,0,0,0,0,0,0,0,0,0,0,0,0,0,0,0,0,0,0,0,0,0,0,0,0,0,0,0,0,0,0,0,0,0,0],"id":7,"left_children":[1,3,5,7,9,11,13,15,17,19,21,23,25,27,29,31,33,35,37,39,41,43,45,47,49,51,53,55,57,59,61,63,65,67,69,71,73,75,77,79,81,83,85,87,89,91,93,95,97,99,101,103,105,107,109,111,113,115,117,119,121,123,125,-1,-1,-1,-1,-1,-1,-1,-1,-1,-1,-1,-1,-1,-1,-1,-1,-1,-1,-1,-1,-1,-1,-1,-1,-1,-1,-1,-1,-1,-1,-1,-1,-1,-1,-1,-1,-1,-1,-1,-1,-1,-1,-1,-1,-1,-1,-1,-1,-1,-1,-1,-1,-1,-1,-1,-1,-1,-1,-1,-1,-1,-1,-1,-1],"loss_changes":[6.8631195E4,5.355953E3,2.0116236E4,3.866668E3,1.1973828E3,5.514328E3,4.755558E3,1.1787783E3,2.4117024E3,7.492969E2,5.3796094E2,3.2306455E3,2.123879E3,4.1899277E3,2.907412E3,8.1363086E2,5.723662E2,1.0477712E3,1.0541052E3,2.4717236E2,8.1692944E2,8.676953E1,3.2936426E2,2.6114607E3,6.6818164E2,4.8245508E2,1.6986631E3,1.8394575E3,1.2051747E3,6.55815E2,1.1701323E3,4.179026E2,4.909492E2,2.5128516E2,3.5755115E2,4.5325E2,7.713799E2,6.103189E2,3.3080054E2,7.9643555E1,3.6813806E2,6.1700586E2,6.6770996E1,1.1933594E1,1.0609473E2,2.2996777E2,2.2001337E2,2.340226E3,7.8570703E2,3.9879135E2,3.429082E2,3.0281055E2,5.0294873E2,1.0418423E3,6.971221E2,7.3973773E2,1.223542E3,7.1111865E2,5.06107E2,2.4694287E2,4.0010486E2,8.115124E2,9.51145E2,0E0,0E0,0E0,0E0,0E0,0E0,0E0,0E0,0E0,0E0,0E0,0E0,0E0,0E0,0E0,0E0,0E0,0E0,0E0,0E0,0E0,0E0,0E0,0E0,0E0,0E0,0E0,0E0,0E0,0E0,0E0,0E0,0E0,0E0,0E0,0E0,0E0,0E0,0E0,0E0,0E0,0E0,0E0,0E0,0E0,0E0,0E0,0E0,0E0,0E0,0E0,0E0,0E0,0E0,0E0,0E0,0E0,0E0,0E0,0E0,0E0,0E0,0E0,0E0],"parents":[2147483647,0,0,1,1,2,2,3,3,4,4,5,5,6,6,7,7,8,8,9,9,10,10,11,11,12,12,13,13,14,14,15,15,16,16,17,17,18,18,19,19,20,20,21,21,22,22,23,23,24,24,25,25,26,26,27,27,28,28,29,29,30,30,31,31,32,32,33,33,34,34,35,35,36,36,37,37,38,38,39,39,40,40,41,41,42,42,43,43,44,44,45,45,46,46,47,47,48,48,49,49,50,50,51,51,52,52,53,53,54,54,55,55,56,56,57,57,58,58,59,59,60,60,61,61,62,62],"right_children":[2,4,6,8,10,12,14,16,18,20,22,24,26,28,30,32,34,36,38,40,42,44,46,48,50,52,54,56,58,60,62,64,66,68,70,72,74,76,78,80,82,84,86,88,90,92,94,96,98,100,102,104,106,108,110,112,114,116,118,120,122,124,126,-1,-1,-1,-1,-1,-1,-1,-1,-1,-1,-1,-1,-1,-1,-1,-1,-1,-1,-1,-1,-1,-1,-1,-1,-1,-1,-1,-1,-1,-1,-1,-1,-1,-1,-1,-1,-1,-1,-1,-1,-1,-1,-1,-1,-1,-1,-1,-1,-1,-1,-1,-1,-1,-1,-1,-1,-1,-1,-1,-1,-1,-1,-1,-1],"split_conditions":[1E0,3E0,3E0,3.106579E-1,1E0,1E0,1E0,1E0,1E0,3.3473045E-1,3E0,1E0,1E0,6E0,4E0,1E0,1E0,3E0,1E0,1E0,1.9E3,2.4986756E-1,1E0,6E0,4E0,1.583E3,3.2986867E-1,3E1,1.08E2,1E0,4.6310523E-1,2E0,4E0,1E0,1.7875786E-1,4E0,2.49E2,1E0,3E0,1.7E1,4.3E1,3E0,1.1E1,1.4E1,1E0,6E0,1E0,4E0,1.5E3,8.83E2,4.188154E3,1.6618873E-1,3E0,1E0,6.0354956E3,2E0,1E0,2E0,2E0,5.6573433E3,1E0,1E0,5.502838E3,9.053461E-2,3.6917776E-2,6.051412E-2,-3.369806E-2,1.10472634E-1,6.2190056E-2,7.7720605E-2,1.2812513E-2,1.1094089E-1,5.216561E-2,-1.1683366E-2,7.3368736E-2,9.34034E-3,-5.126192E-2,2.0975387E-2,-1.2454774E-1,1.0576352E-1,2.588327E-2,-9.344798E-2,7.661254E-2,6.89021E-2,1.765002E-2,-2.0753895E-1,1.2444299E-1,1.2666807E-1,1.028307E-1,1.139819E-1,7.751799E-2,9.833739E-2,3.6792494E-2,6.912236E-2,-1.5460352E-2,3.8217441E-3,-6.291705E-2,-8.612779E-2,5.2182535E-3,-1.5884794E-1,-3.1631708E-3,-5.767713E-2,-1.0895407E-1,-8.864192E-2,-1.2686707E-1,2.25093E-2,-9.5758475E-2,-3.1548187E-2,-1.136684E-1,-9.704509E-2,-3.9969042E-2,-8.729721E-3,1.163604E-1,6.622085E-2,-7.441424E-3,-6.101156E-2,7.082728E-2,-2.9745424E-2,8.735114E-2,-9.85289E-2,5.6524362E-2,7.578039E-2,1.2269095E-2,2.5022242E-2,-4.527794E-2,-1.0110793E-1,-2.6122931E-2],"split_indices":[17,26,26,1,16,27,18,16,27,1,12,21,16,2,13,18,27,12,21,18,22,1,21,2,13,8,1,4,2,7,1,12,13,21,1,13,15,18,13,13,3,12,3,13,21,2,27,17,22,8,11,1,13,21,11,28,21,28,7,11,27,19,11,0,0,0,0,0,0,0,0,0,0,0,0,0,0,0,0,0,0,0,0,0,0,0,0,0,0,0,0,0,0,0,0,0,0,0,0,0,0,0,0,0,0,0,0,0,0,0,0,0,0,0,0,0,0,0,0,0,0,0,0,0,0,0,0],"split_type":[0,0,0,0,0,0,0,0,0,0,0,0,0,0,0,0,0,0,0,0,0,0,0,0,0,0,0,0,0,0,0,0,0,0,0,0,0,0,0,0,0,0,0,0,0,0,0,0,0,0,0,0,0,0,0,0,0,0,0,0,0,0,0,0,0,0,0,0,0,0,0,0,0,0,0,0,0,0,0,0,0,0,0,0,0,0,0,0,0,0,0,0,0,0,0,0,0,0,0,0,0,0,0,0,0,0,0,0,0,0,0,0,0,0,0,0,0,0,0,0,0,0,0,0,0,0,0],"sum_hessian":[2.573548E5,9.4074375E4,1.6328042E5,4.355828E4,5.0516094E4,1.03295E5,5.9985414E4,2.2262084E4,2.12962E4,2.0141678E4,3.0374414E4,4.788768E4,5.540732E4,3.9435824E4,2.054959E4,8.379352E3,1.3882732E4,1.2608149E4,8.688049E3,9.239079E3,1.0902598E4,1.5778165E4,1.459625E4,3.7639984E4,1.0247695E4,2.3762492E4,3.164483E4,3.1036453E4,8.399373E3,4.7609253E3,1.5788664E4,5.820214E3,2.559138E3,9.556631E3,4.3261016E3,6.883582E3,5.724568E3,7.2682036E3,1.4198452E3,6.4470586E3,2.7920208E3,9.4007295E3,1.5018689E3,6.4100674E3,9.368098E3,1.30017705E4,1.594479E3,2.9027402E4,8.612584E3,1.3748795E3,8.872815E3,1.451502E4,9.247472E3,1.3485573E4,1.8159256E4,7.0318105E3,2.4004643E4,6.8147246E3,1.5846483E3,5.7444446E2,4.186481E3,7.7698003E3,8.018864E3,2.903525E3,2.916689E3,8.070772E2,1.7520607E3,8.311778E3,1.2448529E3,3.1655464E3,1.1605554E3,1.7664023E3,5.117179E3,4.3086484E3,1.4159196E3,4.698301E3,2.569903E3,1.7823386E2,1.2416113E3,6.318617E3,1.2844145E2,1.3281656E2,2.6592043E3,4.78217E3,4.618559E3,5.199163E0,1.4966698E3,6.1588804E3,2.511872E2,8.474993E3,8.9310455E2,1.2361073E4,6.4069745E2,1.1792582E3,4.1522086E2,2.2139504E4,6.887899E3,7.536891E3,1.0756926E3,1.9010297E2,1.1847766E3,1.594572E3,7.2782437E3,2.5211047E3,1.1993915E4,3.7426303E2,8.873209E3,1.1706287E4,1.7792854E3,1.567808E4,2.4811765E3,6.5231284E3,5.0868228E2,2.1485834E4,2.5188083E3,6.378452E3,4.3627252E2,5.835326E2,1.0011157E3,4.414904E2,1.3295407E2,2.5701648E3,1.6163163E3,2.3556829E3,5.4141177E3,5.5919795E3,2.426884E3],"tree_param":{"num_deleted":"0","num_feature":"31","num_nodes":"127","size_leaf_vector":"1"}},{"base_weights":[4.175876E-3,6.392154E-1,-3.617663E-1,3.801291E-1,8.614203E-1,-6.127174E-1,6.527298E-2,5.068315E-1,-2.9337338E-1,1.0073855E0,7.089961E-1,-8.5836244E-1,-4.4134253E-1,3.275068E-1,-2.3883978E-1,7.186833E-1,1.8393996E-1,-3.250804E-2,-8.066684E-1,8.610923E-1,1.1061727E0,7.757769E-1,2.3605664E-1,1.5736548E-2,-9.106796E-1,-2.7224645E-1,-7.825955E-1,-7.662952E-2,5.435013E-1,-1.449389E-1,-1.0096712E0,4.418699E-1,8.8528067E-1,3.7820172E-1,-2.0676638E-1,-4.2970333E-1,2.8467783E-1,-8.859206E-1,1.2153451E0,7.9080933E-1,1.2475724E0,1.1117709E0,-2.4455105E-1,9.0119475E-1,5.6893307E-1,3.8664052E-1,-9.4523114E-1,-8.930086E-1,4.4166458E-1,-1.1274186E0,-8.1101614E-1,-3.7549272E-1,3.9920166E-1,-8.378495E-1,3.376869E-1,1.4808124E-1,-5.7578826E-1,8.60576E-1,3.5762772E-1,-4.8128936E-1,2.7182207E-2,-1.4634548E0,-6.457808E-1,9.4068296E-2,2.595956E-2,1.1270682E-1,7.988998E-2,3.2051105E-2,1.2895158E-1,-1.2634196E-3,-9.7373426E-2,-1.3863412E-2,-1.05965786E-1,-1.0284088E-2,6.8687275E-2,-9.384903E-2,1.2599379E-1,1.5813996E-1,-1.5298729E-1,8.5442655E-2,3.1117389E-2,1.3107742E-1,1.18591085E-1,1.1579052E-1,1.0047253E-1,7.7595934E-2,-2.564145E-1,9.439654E-2,4.8374657E-2,2.9032035E-2,7.560519E-2,4.6180367E-2,-1.351077E-1,6.686341E-2,-1.47395E-1,-1.1782797E-1,7.3453814E-2,8.1483E-2,-1.5009373E-2,-8.895783E-2,-1.1948296E-1,-6.6157214E-2,-1.0554283E-1,-1.2637011E-2,-6.225142E-2,5.3951025E-2,-4.1244894E-2,-7.470928E-2,-1.3015363E-1,-4.2317998E-2,9.371401E-2,-2.836718E-2,3.7201386E-2,1.3980615E-3,-9.121303E-2,8.985702E-2,-1.3806392E-1,8.1903495E-2,1.8283634E-2,-5.6900185E-2,1.10423066E-1,1.8785331E-2,-5.912385E-2,-1.5202549E-1,5.262382E-2,2.9944835E-2,-9.0001516E-2],"categories":[],"categories_nodes":[],"categories_segments":[],"categories_sizes":[],"default_left":[0,0,0,0,0,0,0,0,0,0,0,0,0,0,0,0,0,0,0,0,0,0,0,0,0,0,0,0,0,0,0,0,0,0,0,0,0,0,0,0,0,0,0,0,0,0,0,0,0,0,0,0,0,0,0,0,0,0,0,0,0,0,0,0,0,0,0,0,0,0,0,0,0,0,0,0,0,0,0,0,0,0,0,0,0,0,0,0,0,0,0,0,0,0,0,0,0,0,0,0,0,0,0,0,0,0,0,0,0,0,0,0,0,0,0,0,0,0,0,0,0,0,0,0,0,0,0],"id":8,"left_children":[1,3,5,7,9,11,13,15,17,19,21,23,25,27,29,31,33,35,37,39,41,43,45,47,49,51,53,55,57,59,61,63,65,67,69,71,73,75,77,79,81,83,85,87,89,91,93,95,97,99,101,103,105,107,109,111,113,115,117,119,121,123,125,-1,-1,-1,-1,-1,-1,-1,-1,-1,-1,-1,-1,-1,-1,-1,-1,-1,-1,-1,-1,-1,-1,-1,-1,-1,-1,-1,-1,-1,-1,-1,-1,-1,-1,-1,-1,-1,-1,-1,-1,-1,-1,-1,-1,-1,-1,-1,-1,-1,-1,-1,-1,-1,-1,-1,-1,-1,-1,-1,-1,-1,-1,-1,-1],"loss_changes":[5.846866E4,5.2948984E3,1.71058E4,3.6241572E3,1.1007227E3,4.231871E3,4.711797E3,2.4448691E3,9.003462E2,3.643379E2,7.648086E2,1.8894453E3,3.4171729E3,2.7694924E3,1.9798833E3,9.947959E2,1.0750199E3,5.620217E2,3.641444E2,2.7583984E2,1.1448047E2,5.49999E2,5.3377783E2,9.037596E2,8.4093555E2,2.745591E3,1.2149492E3,1.2396829E3,1.218127E3,1.4119285E3,4.8933862E2,7.371179E2,2.80292E2,4.9676892E2,7.0023724E2,3.6292572E2,3.8668607E2,2.4718518E2,8.867886E1,2.630205E2,4.303955E0,7.28457E1,1.5139104E2,2.3529883E2,4.1754663E2,3.480554E2,2.9057248E2,3.4685583E2,3.5128238E2,1.955498E2,9.746211E2,2.1121865E3,6.0134283E2,7.857803E2,4.2140216E2,7.369522E2,6.806732E2,6.5178564E2,1.0511613E3,1.1486814E3,1.6030797E3,1.5019263E2,3.9693427E2,0E0,0E0,0E0,0E0,0E0,0E0,0E0,0E0,0E0,0E0,0E0,0E0,0E0,0E0,0E0,0E0,0E0,0E0,0E0,0E0,0E0,0E0,0E0,0E0,0E0,0E0,0E0,0E0,0E0,0E0,0E0,0E0,0E0,0E0,0E0,0E0,0E0,0E0,0E0,0E0,0E0,0E0,0E0,0E0,0E0,0E0,0E0,0E0,0E0,0E0,0E0,0E0,0E0,0E0,0E0,0E0,0E0,0E0,0E0,0E0,0E0,0E0,0E0,0E0],"parents":[2147483647,0,0,1,1,2,2,3,3,4,4,5,5,6,6,7,7,8,8,9,9,10,10,11,11,12,12,13,13,14,14,15,15,16,16,17,17,18,18,19,19,20,20,21,21,22,22,23,23,24,24,25,25,26,26,27,27,28,28,29,29,30,30,31,31,32,32,33,33,34,34,35,35,36,36,37,37,38,38,39,39,40,40,41,41,42,42,43,43,44,44,45,45,46,46,47,47,48,48,49,49,50,50,51,51,52,52,53,53,54,54,55,55,56,56,57,57,58,58,59,59,60,60,61,61,62,62],"right_children":[2,4,6,8,10,12,14,16,18,20,22,24,26,28,30,32,34,36,38,40,42,44,46,48,50,52,54,56,58,60,62,64,66,68,70,72,74,76,78,80,82,84,86,88,90,92,94,96,98,100,102,104,106,108,110,112,114,116,118,120,122,124,126,-1,-1,-1,-1,-1,-1,-1,-1,-1,-1,-1,-1,-1,-1,-1,-1,-1,-1,-1,-1,-1,-1,-1,-1,-1,-1,-1,-1,-1,-1,-1,-1,-1,-1,-1,-1,-1,-1,-1,-1,-1,-1,-1,-1,-1,-1,-1,-1,-1,-1,-1,-1,-1,-1,-1,-1,-1,-1,-1,-1,-1,-1,-1,-1],"split_conditions":[1E0,3E0,3E0,1E0,3E0,1E0,1E0,1E0,1E0,1E0,1E0,3E0,1E0,1E0,1E0,1E0,1E0,1E0,7E1,1.9E3,3E0,1E0,2.6397364E1,6.9E1,3.4E1,5E1,2E0,1E0,2E0,3.9E1,1E0,4E0,4E0,1.9E3,-4.5342386E-1,1.61E2,1.5E3,4.2013E1,1.162E3,1E0,4.3300796E3,1E0,4.322158E3,2.4780521E0,1E0,5.898857E3,3E0,3E0,1.69E2,4.188154E3,1E0,1E0,1E0,1.89E2,1E0,4.8E1,5E0,4E0,5E0,2E0,4E0,2E0,4.1347583E3,9.4068296E-2,2.595956E-2,1.1270682E-1,7.988998E-2,3.2051105E-2,1.2895158E-1,-1.2634196E-3,-9.7373426E-2,-1.3863412E-2,-1.05965786E-1,-1.0284088E-2,6.8687275E-2,-9.384903E-2,1.2599379E-1,1.5813996E-1,-1.5298729E-1,8.5442655E-2,3.1117389E-2,1.3107742E-1,1.18591085E-1,1.1579052E-1,1.0047253E-1,7.7595934E-2,-2.564145E-1,9.439654E-2,4.8374657E-2,2.9032035E-2,7.560519E-2,4.6180367E-2,-1.351077E-1,6.686341E-2,-1.47395E-1,-1.1782797E-1,7.3453814E-2,8.1483E-2,-1.5009373E-2,-8.895783E-2,-1.1948296E-1,-6.6157214E-2,-1.0554283E-1,-1.2637011E-2,-6.225142E-2,5.3951025E-2,-4.1244894E-2,-7.470928E-2,-1.3015363E-1,-4.2317998E-2,9.371401E-2,-2.836718E-2,3.7201386E-2,1.3980615E-3,-9.121303E-2,8.985702E-2,-1.3806392E-1,8.1903495E-2,1.8283634E-2,-5.6900185E-2,1.10423066E-1,1.8785331E-2,-5.912385E-2,-1.5202549E-1,5.262382E-2,2.9944835E-2,-9.0001516E-2],"split_indices":[17,26,26,21,12,16,27,27,27,16,21,13,18,16,21,16,18,16,4,22,14,27,6,3,3,4,28,18,12,3,16,13,13,22,6,3,22,25,8,21,11,27,11,6,16,11,13,17,3,11,18,27,21,12,26,3,13,14,13,28,17,28,11,0,0,0,0,0,0,0,0,0,0,0,0,0,0,0,0,0,0,0,0,0,0,0,0,0,0,0,0,0,0,0,0,0,0,0,0,0,0,0,0,0,0,0,0,0,0,0,0,0,0,0,0,0,0,0,0,0,0,0,0,0,0,0,0],"split_type":[0,0,0,0,0,0,0,0,0,0,0,0,0,0,0,0,0,0,0,0,0,0,0,0,0,0,0,0,0,0,0,0,0,0,0,0,0,0,0,0,0,0,0,0,0,0,0,0,0,0,0,0,0,0,0,0,0,0,0,0,0,0,0,0,0,0,0,0,0,0,0,0,0,0,0,0,0,0,0,0,0,0,0,0,0,0,0,0,0,0,0,0,0,0,0,0,0,0,0,0,0,0,0,0,0,0,0,0,0,0,0,0,0,0,0,0,0,0,0,0,0,0,0,0,0,0,0],"sum_hessian":[2.5159747E5,9.197966E4,1.5961781E5,4.246708E4,4.951258E4,1.0053681E5,5.9081E4,3.574328E4,6.7237974E3,2.5288969E4,2.4223607E4,4.131384E4,5.9222973E4,3.1725031E4,2.7355969E4,2.1581771E4,1.4161509E4,4.458944E3,2.2648535E3,1.0197828E4,1.5091141E4,2.1225621E4,2.9979858E3,2.3330312E3,3.898081E4,3.9601777E4,1.9621197E4,1.1050043E4,2.0674988E4,2.4386572E4,2.9693975E3,8.110257E3,1.3471514E4,9.458813E3,4.702696E3,1.9797576E3,2.4791863E3,2.1800198E3,8.483385E1,8.631466E3,1.5663632E3,1.5029103E4,6.2038383E1,1.3211257E4,8.0143647E3,2.6596997E3,3.382861E2,7.4410455E2,1.5889268E3,1.227498E4,2.6705828E4,3.4324418E4,5.277358E3,1.8699262E4,9.219343E2,7.6201255E3,3.4299172E3,7.6392744E3,1.3035713E4,8.25461E3,1.6131962E4,1.3200074E3,1.64939E3,2.1692268E3,5.94103E3,3.5425115E3,9.929003E3,8.897048E3,5.617657E2,3.7537156E3,9.4898035E2,1.355042E3,6.247156E2,1.2628823E3,1.2163038E3,2.1284849E3,5.1534885E1,7.525899E1,9.574856E0,7.61981E3,1.0116553E3,7.627163E2,8.036468E2,1.0495166E4,4.5339365E3,4.3515854E1,1.852253E1,1.1982102E4,1.2291553E3,3.2212034E3,4.793161E3,2.5501858E3,1.0951386E2,8.3365845E1,2.5492026E2,6.334185E2,1.1068603E2,9.743129E2,6.146139E2,2.7142388E3,9.560742E3,1.657518E4,1.0130649E4,1.7090482E4,1.7233936E4,4.499923E3,7.774351E2,1.5640748E4,3.0585142E3,4.063255E2,5.1560876E2,2.6022148E3,5.0179106E3,1.2459067E3,2.1840105E3,7.5125615E3,1.26713036E2,3.580307E3,9.455406E3,7.8225625E3,4.320474E2,1.2805769E4,3.3261929E3,1.2836492E3,3.635831E1,3.494782E2,1.2999117E3],"tree_param":{"num_deleted":"0","num_feature":"31","num_nodes":"127","size_leaf_vector":"1"}},{"base_weights":[7.138294E-3,5.889023E-1,-3.2318363E-1,3.495903E-1,8.000221E-1,-5.449418E-1,5.3188246E-2,3.2383338E-2,5.8455646E-1,9.037838E-1,5.8571905E-1,-5.8934605E-1,4.571339E-1,4.108138E-1,-1.3506722E-1,1.9212535E-1,-7.475963E-1,7.135737E-1,2.3127623E-1,9.812659E-1,7.365522E-1,9.841383E-1,4.45446E-1,-4.698135E-1,-9.388073E-1,5.19972E-1,-1.6568631E-1,4.4346902E-1,-1.8419636E0,-2.7313966E-2,-8.389408E-1,3.6570546E-1,-1.9170362E-1,-4.6416047E-1,-1.2790725E0,8.5210586E-1,4.3342212E-1,5.1042265E-1,-1.4763506E-1,9.449252E-1,1.2107341E0,7.930724E-1,-9.830754E-2,1.0278759E0,6.324388E-1,6.978659E-1,1.4742422E-1,-2.9950476E-1,-7.739805E-1,-7.5150573E-1,-1.0676353E0,6.138695E-1,-4.1158146E-1,1.0144693E-1,6.4132845E-1,-1.9586524E0,-1.5634401E-1,3.927441E-1,-2.1470964E-1,-9.286174E-1,2.3795715E-1,4.4307593E-2,-5.858024E-2,5.1790196E-3,-5.9317257E-2,-1.7334217E-2,-1.219513E-1,-5.7162847E-2,-1.5416291E-1,1.0167924E-1,6.9470994E-2,5.4051507E-2,-4.4805896E-2,6.5080844E-2,-1.6651571E-3,-4.5811396E-2,3.2620568E-2,1.0637949E-1,8.502154E-2,1.2182895E-1,2.5061479E-2,9.393136E-2,6.1897155E-2,8.653276E-2,-7.6823674E-2,-2.1425636E-1,1.0381611E-1,-8.941468E-2,9.076258E-2,6.734729E-3,7.618583E-2,4.154506E-2,-2.5268827E-2,-5.9243296E-3,-5.5319007E-2,-3.9042722E-2,-8.885832E-2,-9.558958E-2,-4.6938978E-2,-7.566388E-2,-1.13653265E-1,1.12324454E-1,4.490572E-2,-7.629394E-2,1.8099734E-1,-3.827842E-2,4.0152293E-2,7.4862115E-2,2.2629775E-2,-2.1849695E-1,-1.7482482E-1,-2.5357832E-3,5.8297105E-2,-3.8799185E-2,3.4884464E-2,-6.80952E-2,-1.2964503E-1,-1.6917917E-1,7.415683E-2],"categories":[],"categories_nodes":[],"categories_segments":[],"categories_sizes":[],"default_left":[0,0,0,0,0,0,0,0,0,0,0,0,0,0,0,0,0,0,0,0,0,0,0,0,0,0,0,0,0,0,0,0,0,0,0,0,0,0,0,0,0,0,0,0,0,0,0,0,0,0,0,0,0,0,0,0,0,0,0,0,0,0,0,0,0,0,0,0,0,0,0,0,0,0,0,0,0,0,0,0,0,0,0,0,0,0,0,0,0,0,0,0,0,0,0,0,0,0,0,0,0,0,0,0,0,0,0,0,0,0,0,0,0,0,0,0,0,0,0],"id":9,"left_children":[1,3,5,7,9,11,13,15,17,19,21,23,25,27,29,31,33,35,37,39,41,43,45,47,49,51,-1,53,55,57,59,61,63,65,67,69,71,73,75,77,79,81,83,85,87,89,91,93,95,97,99,101,103,105,107,109,-1,111,113,115,117,-1,-1,-1,-1,-1,-1,-1,-1,-1,-1,-1,-1,-1,-1,-1,-1,-1,-1,-1,-1,-1,-1,-1,-1,-1,-1,-1,-1,-1,-1,-1,-1,-1,-1,-1,-1,-1,-1,-1,-1,-1,-1,-1,-1,-1,-1,-1,-1,-1,-1,-1,-1,-1,-1,-1,-1,-1,-1],"loss_changes":[4.7501312E4,4.522502E3,1.3159256E4,3.1273818E3,1.0569043E3,4.4147617E3,3.9355625E3,2.2249678E3,1.0984277E3,4.1430078E2,8.66728E2,3.9677852E3,5.60021E2,1.4837122E3,2.9044722E3,9.876223E2,4.5650623E2,6.8473535E2,6.823297E2,1.8121484E2,4.7908936E2,6.132959E1,8.6340063E2,3.666747E3,5.832363E2,3.5797595E2,0E0,1.3446667E3,5.9521484E0,2.6145193E3,4.9128027E2,7.5167456E2,4.5134326E2,4.3491412E2,1.9488757E2,3.0532324E2,5.519502E2,2.7490527E2,4.0277316E2,2.117461E2,2.1232422E1,2.4130762E2,4.1663507E2,1.192207E2,1.897308E2,2.5063062E2,5.648324E2,2.7660022E3,1.1163916E3,5.685488E2,3.0626074E2,3.112555E2,2.939525E2,1.0586119E3,5.6031885E2,5.2578735E0,0E0,8.1500073E2,2.2430557E3,4.2650635E2,3.8167343E2,0E0,0E0,0E0,0E0,0E0,0E0,0E0,0E0,0E0,0E0,0E0,0E0,0E0,0E0,0E0,0E0,0E0,0E0,0E0,0E0,0E0,0E0,0E0,0E0,0E0,0E0,0E0,0E0,0E0,0E0,0E0,0E0,0E0,0E0,0E0,0E0,0E0,0E0,0E0,0E0,0E0,0E0,0E0,0E0,0E0,0E0,0E0,0E0,0E0,0E0,0E0,0E0,0E0,0E0,0E0,0E0,0E0,0E0],"parents":[2147483647,0,0,1,1,2,2,3,3,4,4,5,5,6,6,7,7,8,8,9,9,10,10,11,11,12,12,13,13,14,14,15,15,16,16,17,17,18,18,19,19,20,20,21,21,22,22,23,23,24,24,25,25,27,27,28,28,29,29,30,30,31,31,32,32,33,33,34,34,35,35,36,36,37,37,38,38,39,39,40,40,41,41,42,42,43,43,44,44,45,45,46,46,47,47,48,48,49,49,50,50,51,51,52,52,53,53,54,54,55,55,57,57,58,58,59,59,60,60],"right_children":[2,4,6,8,10,12,14,16,18,20,22,24,26,28,30,32,34,36,38,40,42,44,46,48,50,52,-1,54,56,58,60,62,64,66,68,70,72,74,76,78,80,82,84,86,88,90,92,94,96,98,100,102,104,106,108,110,-1,112,114,116,118,-1,-1,-1,-1,-1,-1,-1,-1,-1,-1,-1,-1,-1,-1,-1,-1,-1,-1,-1,-1,-1,-1,-1,-1,-1,-1,-1,-1,-1,-1,-1,-1,-1,-1,-1,-1,-1,-1,-1,-1,-1,-1,-1,-1,-1,-1,-1,-1,-1,-1,-1,-1,-1,-1,-1,-1,-1,-1],"split_conditions":[1E0,3E0,3E0,1E0,1E0,2E0,2E0,1E0,1.4E1,1E0,3E0,6E0,5E0,5E0,1E0,1E0,4.899686E3,1E0,3.2986867E-1,1.9E3,1E0,1E0,4.23713E-1,1E0,1E0,1E0,-1.6568631E-1,1E0,6E0,1.9146591E-1,2.68E2,2.9E1,1.48E2,1.61E2,5E0,2.5339726E-1,1E0,1E1,5.355625E3,2.4986756E-1,3.2E1,5E0,1.8817453E-1,9E0,1.73E2,1E0,1.46E2,4.5161042E-1,4.1738125E3,8E-1,1.4525145E-1,4E0,3.43E2,1.28E2,1E1,1E0,-1.5634401E-1,6E-1,2.01E2,9E0,1E0,4.4307593E-2,-5.858024E-2,5.1790196E-3,-5.9317257E-2,-1.7334217E-2,-1.219513E-1,-5.7162847E-2,-1.5416291E-1,1.0167924E-1,6.9470994E-2,5.4051507E-2,-4.4805896E-2,6.5080844E-2,-1.6651571E-3,-4.5811396E-2,3.2620568E-2,1.0637949E-1,8.502154E-2,1.2182895E-1,2.5061479E-2,9.393136E-2,6.1897155E-2,8.653276E-2,-7.6823674E-2,-2.1425636E-1,1.0381611E-1,-8.941468E-2,9.076258E-2,6.734729E-3,7.618583E-2,4.154506E-2,-2.5268827E-2,-5.9243296E-3,-5.5319007E-2,-3.9042722E-2,-8.885832E-2,-9.558958E-2,-4.6938978E-2,-7.566388E-2,-1.13653265E-1,1.12324454E-1,4.490572E-2,-7.629394E-2,1.8099734E-1,-3.827842E-2,4.0152293E-2,7.4862115E-2,2.2629775E-2,-2.1849695E-1,-1.7482482E-1,-2.5357832E-3,5.8297105E-2,-3.8799185E-2,3.4884464E-2,-6.80952E-2,-1.2964503E-1,-1.6917917E-1,7.415683E-2],"split_indices":[17,26,26,16,18,28,12,21,12,27,13,2,14,14,21,18,11,27,1,22,21,21,1,18,27,21,0,16,2,1,15,2,3,3,13,1,21,13,11,1,2,12,1,3,15,7,3,1,11,0,1,13,3,15,2,18,0,0,15,13,16,0,0,0,0,0,0,0,0,0,0,0,0,0,0,0,0,0,0,0,0,0,0,0,0,0,0,0,0,0,0,0,0,0,0,0,0,0,0,0,0,0,0,0,0,0,0,0,0,0,0,0,0,0,0,0,0,0,0],"split_type":[0,0,0,0,0,0,0,0,0,0,0,0,0,0,0,0,0,0,0,0,0,0,0,0,0,0,0,0,0,0,0,0,0,0,0,0,0,0,0,0,0,0,0,0,0,0,0,0,0,0,0,0,0,0,0,0,0,0,0,0,0,0,0,0,0,0,0,0,0,0,0,0,0,0,0,0,0,0,0,0,0,0,0,0,0,0,0,0,0,0,0,0,0,0,0,0,0,0,0,0,0,0,0,0,0,0,0,0,0,0,0,0,0,0,0,0,0,0,0],"sum_hessian":[2.4718245E5,8.9519664E4,1.576628E5,4.195982E4,4.7559844E4,9.920881E4,5.845398E4,1.785582E4,2.4104E4,3.2042004E4,1.5517838E4,9.499967E4,4.2091377E3,2.015853E4,3.829545E4,1.4821266E4,3.0345547E3,1.7655092E4,6.448909E3,2.189302E4,1.0148984E4,4.0390215E3,1.1478815E4,7.0789055E4,2.4210621E4,4.0884119E3,1.2072589E2,1.9871332E4,2.8719815E2,3.3212293E4,5.0831587E3,1.0206058E4,4.6152085E3,1.9804458E3,1.0541088E3,1.1811851E4,5.8432407E3,3.7132502E3,2.7356587E3,1.8904656E4,2.9883633E3,9.505621E3,6.4336346E2,3.5903203E3,4.4870123E2,6.213987E3,5.2648286E3,4.538145E4,2.5407602E4,9.869326E3,1.4341296E4,3.7144556E3,3.7395636E2,7.2833193E3,1.2588013E4,1.9789697E2,8.9301186E1,1.0245281E4,2.296701E4,4.6926206E3,3.9053842E2,9.439165E3,7.668923E2,2.8732085E3,1.7419999E3,1.4308977E3,5.495481E2,2.8628564E2,7.678232E2,5.7692603E3,6.0425903E3,5.210684E3,6.325565E2,2.932213E3,7.8103735E2,1.652875E3,1.0827838E3,8.378086E3,1.0526571E4,2.9646606E3,2.3702488E1,5.1634556E3,4.3421655E3,2.636643E2,3.7969916E2,1.0907771E1,3.5794126E3,6.813167E1,3.8056955E2,5.728909E2,5.641096E3,3.1529497E3,2.111879E3,2.330822E4,2.207323E4,5.8463296E3,1.9561271E4,5.7214517E3,4.1478745E3,2.6033672E3,1.1737929E4,9.0646844E2,2.807987E3,3.234945E2,5.0461845E1,2.786366E3,4.496953E3,1.0001424E4,2.5865886E3,9.059275E1,1.0730423E2,3.203848E3,7.041433E3,1.756622E4,5.4007896E3,2.8062605E3,1.8863599E3,8.029692E1,3.102415E2],"tree_param":{"num_deleted":"0","num_feature":"31","num_nodes":"119","size_leaf_vector":"1"}},{"base_weights":[6.8437424E-4,5.3538555E-1,-2.9690254E-1,3.127263E-1,7.3762685E-1,-4.974442E-1,4.0751778E-2,5.6807977E-1,4.06069E-2,7.9205465E-1,3.2851824E-1,-2.5504807E-1,-7.186097E-1,-2.8520184E-2,9.468426E-1,6.583494E-1,-2.2101676E-2,1.6075012E-1,-4.921994E-1,9.203452E-1,6.579496E-1,5.512779E-1,-2.686201E-1,-7.6521766E-1,-9.452872E-2,-9.2828846E-1,-5.647001E-1,9.716106E-2,-5.187523E-1,6.6900206E-1,1.0697587E0,7.104959E-1,7.390027E-2,1.7660083E-1,-6.9670796E-1,1.0842667E-2,6.267793E-1,-8.3478767E-1,-1.593494E-1,7.787269E-1,1.0159657E0,8.23297E-1,4.803431E-1,5.893557E-1,-1.1471326E0,-4.8172645E-2,-1.8655084E-1,-1.4734047E-2,-9.165514E-1,-4.21191E-1,9.605671E-2,-8.202525E-1,-1.1033925E0,-4.3514836E-1,-9.3621343E-1,3.2143915E-1,-1.709692E-1,-6.501321E-1,1.4481401E-1,8.12359E-1,-1.0085158E0,1.1125783E0,-2.6337987E-1,5.1160853E-2,8.304885E-2,-9.519517E-2,4.3915056E-2,-2.3078981E-1,2.1979714E-2,-9.673392E-2,1.3546965E-1,9.647801E-3,-7.2228976E-2,9.163054E-2,1.6535738E-2,1.1224716E-2,-1.1363759E-1,5.617669E-2,-4.053672E-2,7.149663E-2,1.14789955E-1,1.0350158E-1,6.764476E-2,8.9446634E-2,4.5249697E-2,3.3008974E-2,7.423802E-2,6.726249E-2,-9.317318E-3,1.1171257E-1,-2.090166E-1,-1.8977393E-1,1.2224576E-2,6.547081E-2,-4.1257378E-2,-4.3585613E-2,-1.058447E-1,-6.9749705E-2,-6.5094917E-3,-6.7942817E-4,6.729642E-2,-9.086909E-2,-2.860768E-2,-1.1212828E-1,1.2806666E-1,-3.2994892E-2,-1.05214715E-1,2.619977E-1,-9.4684035E-2,2.1090368E-2,7.223267E-2,-4.947928E-2,5.4198033E-3,-1.734351E-2,-8.328733E-2,3.0826528E-2,-1.1681115E-1,8.804362E-2,-2.0177884E-1,1.753962E-1,-1.8778834E-1,1.1256812E-1,-1.8848802E-1,-1.963106E-1,9.213119E-2],"categories":[],"categories_nodes":[],"categories_segments":[],"categories_sizes":[],"default_left":[0,0,0,0,0,0,0,0,0,0,0,0,0,0,0,0,0,0,0,0,0,0,0,0,0,0,0,0,0,0,0,0,0,0,0,0,0,0,0,0,0,0,0,0,0,0,0,0,0,0,0,0,0,0,0,0,0,0,0,0,0,0,0,0,0,0,0,0,0,0,0,0,0,0,0,0,0,0,0,0,0,0,0,0,0,0,0,0,0,0,0,0,0,0,0,0,0,0,0,0,0,0,0,0,0,0,0,0,0,0,0,0,0,0,0,0,0,0,0,0,0,0,0,0,0],"id":10,"left_children":[1,3,5,7,9,11,13,15,17,19,21,23,25,27,29,31,33,35,37,39,41,43,45,47,49,51,53,55,57,59,61,63,65,67,69,71,73,75,77,79,81,83,85,87,89,91,-1,93,95,97,99,101,103,105,107,109,111,113,115,117,119,121,123,-1,-1,-1,-1,-1,-1,-1,-1,-1,-1,-1,-1,-1,-1,-1,-1,-1,-1,-1,-1,-1,-1,-1,-1,-1,-1,-1,-1,-1,-1,-1,-1,-1,-1,-1,-1,-1,-1,-1,-1,-1,-1,-1,-1,-1,-1,-1,-1,-1,-1,-1,-1,-1,-1,-1,-1,-1,-1,-1,-1,-1,-1],"loss_changes":[3.8430242E4,3.8883164E3,1.0506662E4,2.856147E3,1.0072363E3,5.2184043E3,3.6290938E3,1.1298037E3,1.2739303E3,6.8633203E2,7.072072E2,3.8033677E3,1.6419961E3,3.3094185E3,1.3934814E2,5.6041455E2,3.7737445E2,1.1344481E3,4.1732214E2,2.7539062E2,5.7300684E2,2.5100464E2,5.0828638E2,1.2623491E3,2.1996663E3,4.0648242E2,1.4124277E3,2.5709924E3,9.556738E2,3.043838E2,1.627832E2,4.0241504E2,5.6535876E2,2.3365593E2,3.569003E2,7.7149585E2,5.2773376E2,5.155094E2,3.2995407E2,1.927251E2,7.7899414E1,2.663213E2,3.7047754E2,2.1537451E2,1.8431223E2,4.0087476E2,0E0,4.9734143E2,6.303379E2,1.2807781E3,1.3240493E3,6.292822E2,3.5191113E2,1.4124922E3,2.8912402E2,1.0313542E3,1.4199175E3,7.967783E2,3.891546E2,2.25854E2,2.4293553E2,1.1031641E2,1.8167534E2,0E0,0E0,0E0,0E0,0E0,0E0,0E0,0E0,0E0,0E0,0E0,0E0,0E0,0E0,0E0,0E0,0E0,0E0,0E0,0E0,0E0,0E0,0E0,0E0,0E0,0E0,0E0,0E0,0E0,0E0,0E0,0E0,0E0,0E0,0E0,0E0,0E0,0E0,0E0,0E0,0E0,0E0,0E0,0E0,0E0,0E0,0E0,0E0,0E0,0E0,0E0,0E0,0E0,0E0,0E0,0E0,0E0,0E0,0E0,0E0,0E0,0E0],"parents":[2147483647,0,0,1,1,2,2,3,3,4,4,5,5,6,6,7,7,8,8,9,9,10,10,11,11,12,12,13,13,14,14,15,15,16,16,17,17,18,18,19,19,20,20,21,21,22,22,23,23,24,24,25,25,26,26,27,27,28,28,29,29,30,30,31,31,32,32,33,33,34,34,35,35,36,36,37,37,38,38,39,39,40,40,41,41,42,42,43,43,44,44,45,45,47,47,48,48,49,49,50,50,51,51,52,52,53,53,54,54,55,55,56,56,57,57,58,58,59,59,60,60,61,61,62,62],"right_children":[2,4,6,8,10,12,14,16,18,20,22,24,26,28,30,32,34,36,38,40,42,44,46,48,50,52,54,56,58,60,62,64,66,68,70,72,74,76,78,80,82,84,86,88,90,92,-1,94,96,98,100,102,104,106,108,110,112,114,116,118,120,122,124,-1,-1,-1,-1,-1,-1,-1,-1,-1,-1,-1,-1,-1,-1,-1,-1,-1,-1,-1,-1,-1,-1,-1,-1,-1,-1,-1,-1,-1,-1,-1,-1,-1,-1,-1,-1,-1,-1,-1,-1,-1,-1,-1,-1,-1,-1,-1,-1,-1,-1,-1,-1,-1,-1,-1,-1,-1,-1,-1,-1,-1,-1],"split_conditions":[1E0,3E0,3E0,3.2986867E-1,1E0,1E0,2E0,9.850319E0,1E0,3E0,1E0,1E0,1E0,6E0,1E0,6E0,1E0,2.49E2,1E0,1E0,3.5923707E-1,3.5E1,8.2387036E-1,1E0,1E0,1.3E1,1E1,4.9186048E-1,2.12E2,8.1961393E-1,2.0727825E1,1E0,5.1E1,1.3255003E1,7E1,6E0,1E0,-1.1814342E0,4.5937422E-1,1.9E3,1.5E1,2.3292374E-2,2.47E2,8.460186E-1,-1.5326698E0,5.4E1,-1.8655084E-1,5.293422E3,3E0,4E1,1.5E3,5E1,2E3,1E0,1E0,2.07E2,1E0,1.9146591E-1,1E0,2.27E2,2.1775793E-4,7.928939E3,1.1426269E0,5.1160853E-2,8.304885E-2,-9.519517E-2,4.3915056E-2,-2.3078981E-1,2.1979714E-2,-9.673392E-2,1.3546965E-1,9.647801E-3,-7.2228976E-2,9.163054E-2,1.6535738E-2,1.1224716E-2,-1.1363759E-1,5.617669E-2,-4.053672E-2,7.149663E-2,1.14789955E-1,1.0350158E-1,6.764476E-2,8.9446634E-2,4.5249697E-2,3.3008974E-2,7.423802E-2,6.726249E-2,-9.317318E-3,1.1171257E-1,-2.090166E-1,-1.8977393E-1,1.2224576E-2,6.547081E-2,-4.1257378E-2,-4.3585613E-2,-1.058447E-1,-6.9749705E-2,-6.5094917E-3,-6.7942817E-4,6.729642E-2,-9.086909E-2,-2.860768E-2,-1.1212828E-1,1.2806666E-1,-3.2994892E-2,-1.05214715E-1,2.619977E-1,-9.4684035E-2,2.1090368E-2,7.223267E-2,-4.947928E-2,5.4198033E-3,-1.734351E-2,-8.328733E-2,3.0826528E-2,-1.1681115E-1,8.804362E-2,-2.0177884E-1,1.753962E-1,-1.8778834E-1,1.1256812E-1,-1.8848802E-1,-1.963106E-1,9.213119E-2],"split_indices":[17,26,26,1,21,27,28,6,21,12,27,7,16,2,16,2,21,15,16,16,1,2,1,30,16,12,2,1,15,1,6,16,2,6,4,2,27,6,1,22,2,5,15,1,6,3,0,10,12,4,22,4,22,21,28,15,16,1,21,3,5,10,5,0,0,0,0,0,0,0,0,0,0,0,0,0,0,0,0,0,0,0,0,0,0,0,0,0,0,0,0,0,0,0,0,0,0,0,0,0,0,0,0,0,0,0,0,0,0,0,0,0,0,0,0,0,0,0,0,0,0,0,0,0,0],"split_type":[0,0,0,0,0,0,0,0,0,0,0,0,0,0,0,0,0,0,0,0,0,0,0,0,0,0,0,0,0,0,0,0,0,0,0,0,0,0,0,0,0,0,0,0,0,0,0,0,0,0,0,0,0,0,0,0,0,0,0,0,0,0,0,0,0,0,0,0,0,0,0,0,0,0,0,0,0,0,0,0,0,0,0,0,0,0,0,0,0,0,0,0,0,0,0,0,0,0,0,0,0,0,0,0,0,0,0,0,0,0,0,0,0,0,0,0,0,0,0,0,0,0,0,0,0],"sum_hessian":[2.415151E5,8.6354234E4,1.5516088E5,4.1103754E4,4.5250477E4,9.734498E4,5.781589E4,2.1204375E4,1.9899379E4,3.9936188E4,5.31429E3,4.644458E4,5.0900402E4,5.3710504E4,4.1053877E3,1.839142E4,2.8129558E3,1.6238601E4,3.6607786E3,2.0407197E4,1.952899E4,3.8706184E3,1.4436715E3,1.1114762E4,3.5329816E4,2.1544104E4,2.9356297E4,4.275099E4,1.0959513E4,1.2613889E3,2.8439988E3,1.688454E4,1.5068811E3,2.1733845E3,6.395714E2,1.2287365E4,3.951235E3,1.8031079E3,1.8576707E3,8.229352E3,1.2177846E4,1.0111357E4,9.417632E3,3.7864395E3,8.4178856E1,1.2695107E3,1.741608E2,1.8654601E3,9.249302E3,1.3017395E4,2.2312422E4,1.3327524E4,8.21658E3,2.1767955E4,7.588343E3,2.3279219E4,1.9471771E4,9.148389E3,1.8111237E3,1.1626102E3,9.877874E1,2.7557268E3,8.827193E1,6.355847E3,1.0528691E4,3.9515573E2,1.1117253E3,3.6205902E1,2.1371785E3,5.6553986E2,7.4031555E1,1.1003123E4,1.2842422E3,2.4271077E3,1.5241276E3,4.3558817E2,1.3675197E3,4.7212097E2,1.3855497E3,7.0201006E3,1.2092505E3,1.152864E4,6.492057E2,8.481738E3,1.6296199E3,5.9871885E3,3.4304434E3,3.3748638E3,4.1157574E2,2.466548E1,5.9513374E1,1.0629815E2,1.1632125E3,6.950341E2,1.170426E3,2.1091104E3,7.140192E3,7.3292E3,5.688195E3,1.8937127E4,3.3752937E3,1.1433671E4,1.8938533E3,8.155948E3,6.0631554E1,1.8598562E4,3.1693926E3,2.1848942E1,7.566494E3,1.82492E4,5.030019E3,7.9859907E3,1.1485781E4,2.5358608E3,6.6125283E3,1.6113605E3,1.9976323E2,1.1360085E3,2.6601671E1,2.3373909E1,7.540483E1,2.7443882E3,1.133873E1,3.601996E1,5.2251972E1],"tree_param":{"num_deleted":"0","num_feature":"31","num_nodes":"125","size_leaf_vector":"1"}},{"base_weights":[-4.011392E-4,4.93425E-1,-2.724101E-1,2.7179736E-1,6.953561E-1,-4.5982993E-1,3.903393E-2,2.3155208E-3,4.7725886E-1,8.05348E-1,4.731003E-1,-3.367248E-1,-8.427275E-1,-1.1404066E-1,4.2049766E-1,-1.00702316E-1,7.7772105E-1,5.668276E-1,-2.9770115E-2,8.4194577E-1,4.4689682E-1,2.3042773E-1,6.5095246E-1,-4.6454653E-1,7.733389E-2,-9.34484E-1,-5.6466573E-1,-3.9875153E-1,6.499843E-2,5.3031147E-1,-3.368365E-1,-1.9776188E-2,-8.454496E-1,1.0399089E0,4.661842E-1,8.4630096E-1,4.461422E-1,2.542666E-1,-5.063525E-1,8.034762E-1,1.1185313E0,-1.2998606E0,5.010036E-1,-1.0418215E-2,4.7663155E-1,7.230837E-1,1.4357886E-1,-3.671426E-1,-9.230418E-1,2.3459448E-1,-5.4666305E-1,-8.31999E-1,-1.1129937E0,-3.8385037E-1,-1.0051935E0,-7.6541585E-1,-2.1534531E-1,1.7377728E-1,-5.8670974E-1,1.8667188E-1,6.613235E-1,-1.4183937E-1,-1.4679214E-1,1.5151042E-2,-3.4881406E-2,-1.1539244E-1,-6.938502E-3,1.0914119E-1,-1.7131016E-1,5.538692E-2,-2.0142575E-1,8.560371E-2,-2.2292316E-1,5.1217854E-2,-3.5098974E-2,1.3110103E-3,1.15360916E-1,-6.519555E-2,1.1740172E-1,6.6914536E-2,8.933729E-2,1.1251179E-1,-4.96225E-3,2.4191672E-3,-2.9251394E-1,-1.1690127E-2,6.2386185E-2,2.55338E-2,-4.3387335E-2,5.9683926E-2,-3.1649467E-2,6.313836E-2,1.004863E-1,-4.5525886E-2,5.32089E-2,-6.1368715E-2,-2.1129657E-2,1.4052554E-2,-9.741379E-2,4.1672986E-2,-3.2292243E-2,-8.311987E-2,6.3748057E-3,-7.2107755E-2,-1.0985066E-1,-1.12526156E-1,1.8098713E-1,-5.331096E-2,5.1420957E-2,-1.18792094E-1,2.1409567E-3,-8.172036E-2,1.3539843E-1,-5.702033E-3,-7.954981E-2,-1.5555394E-2,3.5985734E-2,-4.392702E-2,-1.2928219E-1,2.9929748E-3,8.226144E-2,6.7491256E-2,-2.1694534E-1,-8.121237E-2,2.2917824E-2],"categories":[],"categories_nodes":[],"categories_segments":[],"categories_sizes":[],"default_left":[0,0,0,0,0,0,0,0,0,0,0,0,0,0,0,0,0,0,0,0,0,0,0,0,0,0,0,0,0,0,0,0,0,0,0,0,0,0,0,0,0,0,0,0,0,0,0,0,0,0,0,0,0,0,0,0,0,0,0,0,0,0,0,0,0,0,0,0,0,0,0,0,0,0,0,0,0,0,0,0,0,0,0,0,0,0,0,0,0,0,0,0,0,0,0,0,0,0,0,0,0,0,0,0,0,0,0,0,0,0,0,0,0,0,0,0,0,0,0,0,0,0,0,0,0],"id":11,"left_children":[1,3,5,7,9,11,13,15,17,19,21,23,25,27,29,31,33,35,37,39,41,43,45,47,49,51,53,55,57,59,61,63,65,67,69,71,73,75,77,79,81,83,85,87,89,91,93,95,97,99,101,103,105,107,109,111,113,115,117,119,121,123,-1,-1,-1,-1,-1,-1,-1,-1,-1,-1,-1,-1,-1,-1,-1,-1,-1,-1,-1,-1,-1,-1,-1,-1,-1,-1,-1,-1,-1,-1,-1,-1,-1,-1,-1,-1,-1,-1,-1,-1,-1,-1,-1,-1,-1,-1,-1,-1,-1,-1,-1,-1,-1,-1,-1,-1,-1,-1,-1,-1,-1,-1,-1],"loss_changes":[3.1791674E4,3.7618164E3,8.908284E3,2.2190332E3,1.0747656E3,4.490707E3,3.3481206E3,1.3852229E3,1.0327993E3,3.854668E2,6.283489E2,3.8160234E3,5.9072266E2,2.085833E3,1.3657686E3,9.2241974E2,1.6548071E2,6.5134375E2,4.6241138E2,2.829453E2,2.584048E2,3.6540512E2,3.073662E2,2.4599463E3,1.6690983E3,3.1769043E2,4.57797E2,1.0620972E3,1.7809801E3,6.454358E2,4.5836414E2,7.78262E2,3.5891406E2,1.5824792E2,2.0354219E2,1.7626367E2,7.108374E2,4.6403564E2,3.1282672E2,2.8229492E2,2.5220703E1,1.772238E2,2.0106067E2,3.5071832E2,2.907209E2,1.8930933E2,2.4394162E2,1.7457886E3,5.2477637E2,1.3796431E3,5.9477924E2,3.2641797E2,2.2975098E2,5.4734143E2,3.1409875E2,5.7911865E2,9.672472E2,1.3194231E3,3.733684E2,3.9461514E2,4.0068555E2,4.41718E2,0E0,0E0,0E0,0E0,0E0,0E0,0E0,0E0,0E0,0E0,0E0,0E0,0E0,0E0,0E0,0E0,0E0,0E0,0E0,0E0,0E0,0E0,0E0,0E0,0E0,0E0,0E0,0E0,0E0,0E0,0E0,0E0,0E0,0E0,0E0,0E0,0E0,0E0,0E0,0E0,0E0,0E0,0E0,0E0,0E0,0E0,0E0,0E0,0E0,0E0,0E0,0E0,0E0,0E0,0E0,0E0,0E0,0E0,0E0,0E0,0E0,0E0,0E0],"parents":[2147483647,0,0,1,1,2,2,3,3,4,4,5,5,6,6,7,7,8,8,9,9,10,10,11,11,12,12,13,13,14,14,15,15,16,16,17,17,18,18,19,19,20,20,21,21,22,22,23,23,24,24,25,25,26,26,27,27,28,28,29,29,30,30,31,31,32,32,33,33,34,34,35,35,36,36,37,37,38,38,39,39,40,40,41,41,42,42,43,43,44,44,45,45,46,46,47,47,48,48,49,49,50,50,51,51,52,52,53,53,54,54,55,55,56,56,57,57,58,58,59,59,60,60,61,61],"right_children":[2,4,6,8,10,12,14,16,18,20,22,24,26,28,30,32,34,36,38,40,42,44,46,48,50,52,54,56,58,60,62,64,66,68,70,72,74,76,78,80,82,84,86,88,90,92,94,96,98,100,102,104,106,108,110,112,114,116,118,120,122,124,-1,-1,-1,-1,-1,-1,-1,-1,-1,-1,-1,-1,-1,-1,-1,-1,-1,-1,-1,-1,-1,-1,-1,-1,-1,-1,-1,-1,-1,-1,-1,-1,-1,-1,-1,-1,-1,-1,-1,-1,-1,-1,-1,-1,-1,-1,-1,-1,-1,-1,-1,-1,-1,-1,-1,-1,-1,-1,-1,-1,-1,-1,-1],"split_conditions":[1E0,3E0,3E0,1E0,1E0,6E0,9E-1,6E1,1E0,2.4780521E0,1E0,9E-1,1.63E2,1E0,1E0,1.3E1,1.48E2,4.206097E3,1E0,1.9E3,1.5315795E3,1.5E3,-3.1705946E-1,1E0,1E0,2E0,-5.334337E-1,4.6E1,4E0,3.3E1,6E0,1E0,1.13E2,9.2E1,6.271372E3,6.740292E3,6E0,2.94E3,7E1,1E0,3.43E2,3.1843662E3,6.6E1,1.46E2,-3.9475325E-1,6E1,2.01E2,1E0,3.1044634E3,-3.9475325E-1,1.706E3,2.4742365E-2,2E3,4E1,8.1474966E-1,2E3,-3.1705946E-1,4.1E1,1E0,9.5E1,4.308E3,4.949206E3,-1.4679214E-1,1.5151042E-2,-3.4881406E-2,-1.1539244E-1,-6.938502E-3,1.0914119E-1,-1.7131016E-1,5.538692E-2,-2.0142575E-1,8.560371E-2,-2.2292316E-1,5.1217854E-2,-3.5098974E-2,1.3110103E-3,1.15360916E-1,-6.519555E-2,1.1740172E-1,6.6914536E-2,8.933729E-2,1.1251179E-1,-4.96225E-3,2.4191672E-3,-2.9251394E-1,-1.1690127E-2,6.2386185E-2,2.55338E-2,-4.3387335E-2,5.9683926E-2,-3.1649467E-2,6.313836E-2,1.004863E-1,-4.5525886E-2,5.32089E-2,-6.1368715E-2,-2.1129657E-2,1.4052554E-2,-9.741379E-2,4.1672986E-2,-3.2292243E-2,-8.311987E-2,6.3748057E-3,-7.2107755E-2,-1.0985066E-1,-1.12526156E-1,1.8098713E-1,-5.331096E-2,5.1420957E-2,-1.18792094E-1,2.1409567E-3,-8.172036E-2,1.3539843E-1,-5.702033E-3,-7.954981E-2,-1.5555394E-2,3.5985734E-2,-4.392702E-2,-1.2928219E-1,2.9929748E-3,8.226144E-2,6.7491256E-2,-2.1694534E-1,-8.121237E-2,2.2917824E-2],"split_indices":[17,26,26,16,18,2,0,4,21,6,16,0,15,16,21,2,3,11,18,22,9,22,6,21,21,26,6,3,17,3,2,18,2,2,11,10,2,8,4,16,3,10,3,3,6,4,15,16,11,6,8,5,22,3,5,22,6,3,14,2,8,9,0,0,0,0,0,0,0,0,0,0,0,0,0,0,0,0,0,0,0,0,0,0,0,0,0,0,0,0,0,0,0,0,0,0,0,0,0,0,0,0,0,0,0,0,0,0,0,0,0,0,0,0,0,0,0,0,0,0,0,0,0,0,0],"split_type":[0,0,0,0,0,0,0,0,0,0,0,0,0,0,0,0,0,0,0,0,0,0,0,0,0,0,0,0,0,0,0,0,0,0,0,0,0,0,0,0,0,0,0,0,0,0,0,0,0,0,0,0,0,0,0,0,0,0,0,0,0,0,0,0,0,0,0,0,0,0,0,0,0,0,0,0,0,0,0,0,0,0,0,0,0,0,0,0,0,0,0,0,0,0,0,0,0,0,0,0,0,0,0,0,0,0,0,0,0,0,0,0,0,0,0,0,0,0,0,0,0,0,0,0,0],"sum_hessian":[2.3667519E5,8.4061766E4,1.5261344E5,4.0077688E4,4.398408E4,9.5277484E4,5.733595E4,1.733834E4,2.2739348E4,2.9420914E4,1.4563162E4,7.209909E4,2.317839E4,4.091709E4,1.641886E4,1.5305625E4,2.0327141E3,1.9325498E4,3.4138484E3,2.669385E4,2.727065E3,6.160395E3,8.402767E3,5.509205E4,1.7007041E4,1.7425498E4,5.7528916E3,1.5796527E4,2.512056E4,1.4339985E4,2.0788735E3,1.3806533E4,1.499092E3,1.1023353E3,9.303787E2,5.8263853E3,1.3499113E4,2.1391814E3,1.274667E3,2.3438162E4,3.2556887E3,8.118714E1,2.6458777E3,3.1143606E3,3.0460344E3,7.3563267E3,1.0464402E3,4.544056E4,9.651492E3,1.3584293E4,3.4227485E3,1.1073986E4,6.3515127E3,4.080246E3,1.6726453E3,5.265687E3,1.053084E4,2.1528117E4,3.5924448E3,3.9589622E3,1.0381023E4,1.7742157E3,3.0465796E2,9.080007E3,4.7265264E3,1.0722659E3,4.2682623E2,1.0827198E3,1.9615566E1,8.9940137E2,3.097733E1,5.808751E3,1.7634298E1,1.2466815E4,1.032298E3,1.687743E3,4.514384E2,1.1736431E3,1.0102394E2,9.400598E3,1.4037563E4,3.2375564E3,1.8132282E1,4.5248505E1,3.5938633E1,4.3870148E2,2.2071763E3,1.9135786E3,1.200782E3,2.6454575E3,4.005769E2,5.5528477E3,1.8034794E3,4.115934E2,6.3484674E2,1.7597762E4,2.7842797E4,4.422536E2,9.209238E3,1.023956E4,3.344734E3,2.334399E3,1.0883495E3,7.8223667E3,3.2516194E3,6.3256123E3,2.5900602E1,3.499192E3,5.810543E2,1.4198612E3,2.5278403E2,5.1407344E3,1.24952736E2,8.274093E3,2.2567473E3,7.7722085E3,1.3755908E4,2.9733574E3,6.190874E2,3.1770999E3,7.8186237E2,1.0332221E4,4.8802498E1,6.3182837E2,1.1423873E3],"tree_param":{"num_deleted":"0","num_feature":"31","num_nodes":"125","size_leaf_vector":"1"}},{"base_weights":[2.430844E-3,4.7013962E-1,-2.574605E-1,2.6583093E-1,6.6058064E-1,-4.478106E-1,4.8621483E-2,4.5015323E-1,-1.9580614E-2,7.633939E-1,4.572149E-1,-2.3255625E-1,-6.4690495E-1,2.2712025E-1,-2.9622686E-1,5.455936E-1,2.3256913E-2,3.6273155E-1,-1.8213071E-1,9.753164E-1,7.0000076E-1,7.896473E-1,2.7077305E-1,-1.1505845E-1,-7.6246756E-1,-4.0794903E-1,-8.125335E-1,3.4942585E-1,-2.1976927E-1,1.1992388E-1,-4.3617642E-1,3.0865973E-1,6.942374E-1,-1.0636939E0,1.135859E-1,7.905449E-1,2.0392855E-1,-7.799259E-2,-7.945351E-1,9.9545264E-1,6.707765E-1,8.1535465E-1,5.667112E-1,8.49472E-1,3.4564734E-1,7.584032E-3,4.693429E-1,-5.257532E-1,4.964001E-2,-8.35577E-1,8.267485E-2,-6.199106E-1,-1.3881427E-1,-1.0319076E0,-6.155811E-1,6.632451E-1,1.8748635E-1,-3.7708557E-1,4.958447E-1,-9.2653744E-2,5.297875E-1,-6.492006E-1,-1.0186937E-1,7.774907E-2,1.43836485E-2,7.092113E-2,-1.1012383E-1,2.422197E-2,-1.4658605E-1,4.0289875E-2,-2.1149937E-2,-2.1574473E-1,8.337778E-2,-1.1936791E-1,2.6568163E-2,7.842633E-3,-6.5816045E-2,-1.3431586E-1,-4.6299037E-2,1.118693E-1,9.488087E-2,-2.9522002E-1,8.191998E-2,8.310302E-2,-5.7041254E-2,6.0390588E-2,-2.8680457E-2,-7.404097E-2,8.599468E-2,-2.110409E-1,4.6768486E-2,-2.781236E-2,3.7393134E-2,4.8875567E-2,-2.6800105E-1,-8.6003326E-2,-3.5445597E-2,1.4662534E-2,-9.402039E-2,-2.173909E-2,-9.567141E-2,5.02221E-2,-1.4048766E-1,-4.594716E-2,-1.1527053E-1,2.1447076E-2,-4.7165986E-2,-1.0432746E-1,3.5774108E-2,-4.393191E-2,-1.0135155E-1,7.376172E-2,8.607155E-3,3.6228728E-2,-1.812963E-2,-8.48955E-3,-6.997166E-2,-3.173492E-4,7.9142384E-2,3.5493653E-2,-3.2406308E-2,6.08398E-2,-1.8129764E-1,-5.058214E-2,-1.0798842E-1,9.4293815E-4,-1.3553941E-1],"categories":[],"categories_nodes":[],"categories_segments":[],"categories_sizes":[],"default_left":[0,0,0,0,0,0,0,0,0,0,0,0,0,0,0,0,0,0,0,0,0,0,0,0,0,0,0,0,0,0,0,0,0,0,0,0,0,0,0,0,0,0,0,0,0,0,0,0,0,0,0,0,0,0,0,0,0,0,0,0,0,0,0,0,0,0,0,0,0,0,0,0,0,0,0,0,0,0,0,0,0,0,0,0,0,0,0,0,0,0,0,0,0,0,0,0,0,0,0,0,0,0,0,0,0,0,0,0,0,0,0,0,0,0,0,0,0,0,0,0,0,0,0,0,0,0,0],"id":12,"left_children":[1,3,5,7,9,11,13,15,17,19,21,23,25,27,29,31,33,35,37,39,41,43,45,47,49,51,53,55,57,59,61,63,65,67,69,71,73,75,77,79,81,83,85,87,89,91,93,95,97,99,101,103,105,107,109,111,113,115,117,119,121,123,125,-1,-1,-1,-1,-1,-1,-1,-1,-1,-1,-1,-1,-1,-1,-1,-1,-1,-1,-1,-1,-1,-1,-1,-1,-1,-1,-1,-1,-1,-1,-1,-1,-1,-1,-1,-1,-1,-1,-1,-1,-1,-1,-1,-1,-1,-1,-1,-1,-1,-1,-1,-1,-1,-1,-1,-1,-1,-1,-1,-1,-1,-1,-1,-1],"loss_changes":[2.8408635E4,3.247836E3,8.753041E3,2.1188586E3,9.0289844E2,3.9694395E3,3.5459644E3,9.9698926E2,9.82234E2,3.8465625E2,8.990598E2,2.7711528E3,1.9040254E3,2.0747983E3,1.1443754E3,7.040654E2,4.391676E2,3.2008282E2,7.071466E2,3.9666016E1,3.3907617E2,1.3806543E2,4.8590686E2,2.464433E3,4.9924902E2,1.1237339E3,1.2270898E3,1.5143635E3,9.1844775E2,4.3095935E2,1.0469829E3,5.957582E2,3.3113037E2,1.8071701E2,3.885827E2,1.6428546E2,2.971438E2,8.6040875E2,2.9233435E2,3.4328613E1,2.2427643E2,2.5769922E2,3.256963E2,7.714697E1,1.8693329E2,4.1877646E2,3.2510156E2,5.9673486E2,2.496577E3,5.5643066E2,4.0249127E2,9.413872E2,1.0209884E3,2.1278516E2,1.0499497E3,4.352793E2,1.2674441E3,6.3028827E2,2.1695013E2,3.3746167E2,3.12078E2,5.538513E2,7.9874744E2,0E0,0E0,0E0,0E0,0E0,0E0,0E0,0E0,0E0,0E0,0E0,0E0,0E0,0E0,0E0,0E0,0E0,0E0,0E0,0E0,0E0,0E0,0E0,0E0,0E0,0E0,0E0,0E0,0E0,0E0,0E0,0E0,0E0,0E0,0E0,0E0,0E0,0E0,0E0,0E0,0E0,0E0,0E0,0E0,0E0,0E0,0E0,0E0,0E0,0E0,0E0,0E0,0E0,0E0,0E0,0E0,0E0,0E0,0E0,0E0,0E0,0E0,0E0,0E0],"parents":[2147483647,0,0,1,1,2,2,3,3,4,4,5,5,6,6,7,7,8,8,9,9,10,10,11,11,12,12,13,13,14,14,15,15,16,16,17,17,18,18,19,19,20,20,21,21,22,22,23,23,24,24,25,25,26,26,27,27,28,28,29,29,30,30,31,31,32,32,33,33,34,34,35,35,36,36,37,37,38,38,39,39,40,40,41,41,42,42,43,43,44,44,45,45,46,46,47,47,48,48,49,49,50,50,51,51,52,52,53,53,54,54,55,55,56,56,57,57,58,58,59,59,60,60,61,61,62,62],"right_children":[2,4,6,8,10,12,14,16,18,20,22,24,26,28,30,32,34,36,38,40,42,44,46,48,50,52,54,56,58,60,62,64,66,68,70,72,74,76,78,80,82,84,86,88,90,92,94,96,98,100,102,104,106,108,110,112,114,116,118,120,122,124,126,-1,-1,-1,-1,-1,-1,-1,-1,-1,-1,-1,-1,-1,-1,-1,-1,-1,-1,-1,-1,-1,-1,-1,-1,-1,-1,-1,-1,-1,-1,-1,-1,-1,-1,-1,-1,-1,-1,-1,-1,-1,-1,-1,-1,-1,-1,-1,-1,-1,-1,-1,-1,-1,-1,-1,-1,-1,-1,-1,-1,-1,-1,-1,-1],"split_conditions":[1E0,3E0,3E0,1E0,1E0,1E0,1E0,1E0,1.7875786E-1,4E0,4E0,1.8515398E1,3.2986867E-1,6E0,1.7875786E-1,1E0,7.34E2,3.929716E3,1E0,6E0,4.23713E-1,1E0,1E0,3.3E1,9.7116806E1,1.468E3,4.9E1,2.180816E-1,1.13E2,1.767E3,2E0,4E0,5.2344162E1,-1.2972277E0,3.9434202E0,3.56E2,1.3E1,1.77E2,4.0910771E3,2E0,-1.1987772E0,5.0792168E1,3.3E1,7.336978E2,1.8441887E3,5E0,3E0,1E0,3E0,1E0,1E0,-3.779588E-1,5.2545854E3,3.2346836E1,4E0,1.3255003E1,-6.61485E-1,1E0,1E0,8.82852E-3,3E0,1.4E2,3.6E1,7.774907E-2,1.43836485E-2,7.092113E-2,-1.1012383E-1,2.422197E-2,-1.4658605E-1,4.0289875E-2,-2.1149937E-2,-2.1574473E-1,8.337778E-2,-1.1936791E-1,2.6568163E-2,7.842633E-3,-6.5816045E-2,-1.3431586E-1,-4.6299037E-2,1.118693E-1,9.488087E-2,-2.9522002E-1,8.191998E-2,8.310302E-2,-5.7041254E-2,6.0390588E-2,-2.8680457E-2,-7.404097E-2,8.599468E-2,-2.110409E-1,4.6768486E-2,-2.781236E-2,3.7393134E-2,4.8875567E-2,-2.6800105E-1,-8.6003326E-2,-3.5445597E-2,1.4662534E-2,-9.402039E-2,-2.173909E-2,-9.567141E-2,5.02221E-2,-1.4048766E-1,-4.594716E-2,-1.1527053E-1,2.1447076E-2,-4.7165986E-2,-1.0432746E-1,